tree
version=v4
num_class=1
num_tree_per_iteration=1
label_index=0
max_feature_idx=8
objective=huber
feature_names=total_open_amount due_days avg_due_days avg_payment_delay std_payment_delay avg_days_to_clear avg_invoice_amount transaction_count late_payment_ratio
feature_infos=[0.79000000000000004:668593.35999999999] [-50:122] [-12:120] [-64:195] [0:79.195959492893323] [0:206] [17.329999999999998:615881.5575] [1:8942] [0:1]
tree_sizes=2768 2884 2897 2894 2880 2869 2863 2893 2867 2875 2882 2880 2880 2899 2894 2903 2893 2892 2892 2899 2895 2895 2895 2892 2876 2894 2884 2860 2881 2889 2912 2896 2888 2884 2901 2877 2898 2905 2910 2901 2894 2915 2904 2913 2888 2902 2919 2898 2894 2903 2885 2896 2882 2902 2883 2902 2901 2885 2863 2895 2898 2901 2888 2896 2893 2875 2884 2878 2888 2880 2886 2868 2890 2879 2895 2904 2896 2894 2866 2874 2887 2896 2866 2875 2914 2884 2888 2890 2879 2889 2892 2889 2898 2910 2882 2874 2891 2900 2873 2872 2878 2891 2873 2872 2892 2872 2874 2875 2887 2879 2876 2889 2879 2879 2889 2882 2894 2871 2875 2867 2864 2886 2869 2859 2862 2906 2887 2900 2910 2885 2860 2857 2871 2860 2859 2890 2868 2878 2878 2891 2894 2861 2865 2868 2855 2900 2892 2897 2848 2855 2873 2855 2888 2873 2876 2874 2874 2853 2878 2894 2851 2875 2871 2850 2872 2865 2833 2868 2865 2896 2863 2860 2878 2859 2865 2880 2855 2864 2880 2872 2863 2882 2870 2875 2871 2894 2880 2866 2862 2867 2887 2859 2862 2855 2865 2879 2857 2858 2856 2847 2903 2878 2858 2867 2871 2877 2874 2876 2870 2861 2864 2874 2893 2893 2886 2874 2871 2904 2873 2871 2883 2868 2869 2868 2878 2878 2865 2868 2849 2851 2852 2854 2850 2845 2851 2868 2866 2877 2859 2865 2864 2864 2867 2859 2886 2825 2876 2843 2890 2830 2883 2825 2862 2866 2862 2868 2863 2880 2868 2846 2864 2870 2884 2856 2865 2879 2868 2867 2876 2876 2864 2856 2862 2867 2887 2864 2854 2842 2868 2866 2864 2889 2880 2862 2861 2866 2899 2857 2873 2874 2844 2884 2881 2839 2878 2883 2848 2842 2865 2861 2895 2886 2895 2881 2883 2840 2850 2859 2860 2848 2861 2867 2835 2863 2844 2894 2834 2869 2895 2839 2845 2854 2827 2870 2868 2828 2846 2861 2890 2849 2852 2868 2872 2863 2855 2869 2852 2853 2872 2902 2828 2849 2828 2905 2830 2872 2875 2876 2850 2849 2857 2874 2827 2853 2864 2826 2834 2829 2820 2841 2838 2833 2850 2854 2843 2876 2854 2883 2861 2819 2862 2830 2848 2878 2837 2857 2870 2873 2874 2881 2842 2840 2868 2838 2883 2873 2854 2837 2844 2840 2837 2834 2829 2845 2845 2807 2876 2898 2832 2820 2850 2835 2828 2828 2860 2811 2844 2835 2818 2835 2856 2824 2871 2874 2833 2842 2860 2828 2826 2820 2879 2845 2826 2826 2893 2798 2848 2805 2812 2862 2838 2856 2820 2817 2808 2830 2822 2837 2842 2814 2842 2826 2840 2847 2846 2865 2857 2882 2868 2836 2828 2826 2813 2805 2822 2864 2843 2824 2830 2806 2878 2845 2859 2832 2854 2812 2846 2825 2870 2845 2846 2830 2822 2831 2839 2840 2794 2848 2790 2792 2855 2842 2790 2835 2838 2823 2842 2837 2806 2797 2810 2814 2830 2829 2819 2793 2800 2794 2806 2829 2838 2827 2830 2853 2866 2856 2854 2884 2865 2822 2825 2821 2828 2832 2855 2857 2818 2880 2828 2844 2821 2816 2848 2805 2836 2889 2850 2814 2824 2817 2819 2840 2861 2891 2815 2832 2873 2867 2839 2836 2842 2816 2841 2828 2842 2832 2822 2858 2812 2875 2837 2843 2845 2826 2832 2809 2836 2834 2832 2836 2835 2825 2818 2880 2791 2848 2874 2823 2801 2831 2820 2830 2852 2848 2832 2834 2830 2863 2833 2850 2867 2852 2895 2856 2861 2831 2821 2791 2810 2820 2840 2826 2823 2836 2802 2849 2831 2845 2801 2831 2787 2848 2809 2826 2838 2843 2849 2799 2844 2864 2817 2862 2862 2870 2852 2800 2808 2880 2814 2808 2819 2846 2827 2826 2828 2858 2806 2824 2820 2834 2813 2855 2823 2853 2826 2822 2807 2791 2798 2819 2831 2852 2838 2851 2810 2832 2802 2861 2789 2821 2830 2835 2885 2861 2836 2853 2807 2845 2822 2841 2809 2807 2805 2837 2807 2823 2813 2817 2803 2837 2877 2803 2830 2837 2838 2849 2860 2840 2825 2825 2787 2814 2826 2800 2815 2808 2814 2895 2823 2798 2830 2821 2811 2809 2810 2857 2806 2808 2796 2789 2808 2824 2816 2811 2785 2819 2845 2816 2817 2825 2811 2834 2852 2802 2815 2825 2805 2818 2803 2815 2816 2832 2817 2835 2815 2800 2793 2812 2785 2796 2824 2826 2826 2855 2807 2821 2821 2794 2823 2804 2889 2801 2803 2796 2806 2818 2838 2836 2793 2795 2790 2808 2828 2846 2788 2849 2856 2830 2823 2865 2832 2844 2803 2830 2835 2830 2872 2823 2839 2837 2821 2836 2849 2810 2818 2839 2838 2848 2847 2904 2847 2823 2809 2822 2840 2793 2819 2900 2829 2831 2799 2823 2806 2804 2800 2824 2804 2806 2807 2811 2841 2825 2825 2834 2812 2820 2849 2822 2821 2801 2839 2815 2843 2846 2845 2869 2832 2858 2844 2811 2872 2828 2859 2819 2814 2793 2876 2796 2768 2788 2798 2793 2810 2809 2800 2802 2817 2813 2818 2797 2814 2820 2838 2873 2797 2858 2844 2861 2832 2860 2840 2818 2797 2799 2775 2842 2846 2847 2828 2832 2856 2837 2872 2822 2870 2815 2876 2835 2830 2820 2810 2803 2825 2904 2818 2836 2791 2813 2800 2884 2788 2782 2837 2855 2812 2789 2784 2783 2796 2800 2792 2847 2795 2804 2842 2815 2820 2809 2819 2831 2805 2785 2797 2775 2790 2776 2801 2810 2819 2817 2853 2846 2875 2874 2825 2775 2768 2828 2775 2793 2829 2808 2807 2886 2800 2792 2844 2836 2806 2782 2837 2856 2817 2831 2767 2827 2788 2808 2795 2801 2812 2811 2842 2846 2790 2847 2802 2784 2803 2809 2812 2826 2828 2771 2872 2797 2893 2891 2796 2790 2800 2816 2815 2802 2817 2811 2771 2841 2846 2774 2787 2805 2783 2802 2814 2848 2847 2803 2810 2818 2803 2768 2786 2809 2842 2842 2831 2786 2813 2826 2788 2789 2786 2801 2781 2857 2787 2781 2776 2829

Tree=0
num_leaves=31
num_cat=0
split_feature=8 8 8 1 8 3 8 1 0 1 1 8 1 6 5 3 5 1 0 8 0 2 1 8 8 3 8 1 1 5
split_gain=4148.7 589.122 494.348 127.736 99.4087 55.8192 52.2028 34.8819 32.1749 33.3537 30.8694 28.0843 26.621 24.0431 18.4906 14.9148 13.2354 12.6468 12.7302 12.4104 19.4034 22.9955 14.8029 11.4534 11.2613 10.5914 10.0988 9.93465 8.94553 8.93662
threshold=0.51149613163343155 0.83602150537634423 0.2873670212765958 2.5000000000000004 0.67217630853994492 3.8111285266457688 0.17780731812503162 10.500000000000002 44694.810000000005 44.500000000000007 -1.0000000180025095e-35 0.37053001277139214 15.500000000000002 55331.681006944455 7.5912803532008839 1.7453722334004027 22.104300543746913 12.500000000000002 6426.880000000001 0.20508259681429872 13305.301250000002 15.92052331071846 7.5000000000000009 0.10247376311844077 0.56890012642225041 1.5031250000000003 0.96481178396072032 15.500000000000002 4.5000000000000009 20.321078431372552
decision_type=2 2 2 2 2 2 2 2 2 2 2 2 2 2 2 2 2 2 2 2 2 2 2 2 2 2 2 2 2 2
left_child=2 4 3 10 12 -3 23 -4 17 25 -1 -9 13 16 -12 29 -2 -6 -19 20 21 22 -8 -5 -17 -10 -7 -23 -25 -14
right_child=1 5 7 6 8 26 19 11 9 -11 14 -13 15 -15 -16 24 -18 18 -20 -21 -22 27 -24 28 -26 -27 -28 -29 -30 -31
leaf_value=1.0062499990420681 0.96848968165616189 0.99447100428652568 0.97806919622053567 0.9263079513905973 0.99639547343340862 1.0005246386056144 0.94685188199260395 0.94944039995091234 0.96787045791485282 0.93371492441819637 0.94994559204871099 0.95662881054874771 0.95112220780055845 0.98815122523045573 0.99124902287963779 0.959813702192444 0.98119819943212727 0.97784172037681849 0.98682055223523579 0.94199297425075912 0.93455675006240468 0.93740947578124001 0.92491366977461653 0.95480208373732034 0.97347506821454111 0.98185969574759668 1.0125837006936214 0.94396443453279832 0.93221082153780277 0.96415432708079996
leaf_weight=63 795 686 154 1123 261 195 98 2161 215 49 84 3660 221 283 40 208 276 512 1724 1640 3456 860 357 45 549 365 1583 1763 1670 325
leaf_count=63 795 686 154 1123 261 195 98 2161 215 49 84 3660 221 283 40 208 276 512 1724 1640 3456 860 357 45 549 365 1583 1763 1670 325
internal_value=0.956965 0.986114 0.942968 0.936772 0.977391 1.00659 0.936076 0.954582 0.983434 0.973327 0.977749 0.95396 0.97028 0.97519 0.963269 0.965178 0.971765 0.98598 0.984765 0.938104 0.937128 0.940015 0.929639 0.930233 0.969721 0.976674 1.01126 0.941815 0.932804 0.958879
internal_weight=25421 8247 17174 11199 5783 2464 11012 5975 3126 629 187 5821 2657 1354 124 1303 1071 2497 2236 8174 6534 3078 455 2838 757 580 1778 2623 1715 546
internal_count=25421 8247 17174 11199 5783 2464 11012 5975 3126 629 187 5821 2657 1354 124 1303 1071 2497 2236 8174 6534 3078 455 2838 757 580 1778 2623 1715 546
is_linear=0
shrinkage=1


Tree=1
num_leaves=31
num_cat=0
split_feature=8 8 8 1 8 3 8 0 1 1 1 8 6 2 2 1 3 1 8 0 2 1 0 8 7 8 8 1 7 1
split_gain=4111.98 616.199 457.638 126.589 110.717 58.3661 52.867 31.5807 33.2699 30.3351 29.4673 27.8143 18.3587 18.0796 16.678 14.9874 13.6164 12.7529 12.6354 19.4115 23.175 15.0767 12.4122 11.6247 11.3652 10.5637 10.2147 10.0958 9.63605 8.99708
threshold=0.5006265664160402 0.83602150537634423 0.2873670212765958 2.5000000000000004 0.67217630853994492 3.8111285266457688 0.17780731812503162 44694.810000000005 44.500000000000007 -1.0000000180025095e-35 15.500000000000002 0.37053001277139214 58890.41226288661 18.274436090225567 11.795683453237412 11.500000000000002 0.29285714285714287 12.500000000000002 0.20508259681429872 13305.301250000002 15.92052331071846 7.5000000000000009 6426.880000000001 0.10247376311844077 988.00000000000011 0.64026143790849688 0.98549107142857151 15.500000000000002 688.50000000000011 4.5000000000000009
decision_type=2 2 2 2 2 2 2 2 2 2 2 2 2 2 2 2 2 2 2 2 2 2 2 2 2 2 2 2 2 2
left_child=2 4 3 9 10 -3 23 17 24 -1 13 -4 28 16 -11 -13 -2 -6 19 20 21 -8 -19 -5 -9 -15 -7 -22 -12 -25
right_child=1 5 11 6 7 26 18 8 -10 14 12 15 -14 25 -16 -17 -18 22 -20 -21 27 -23 -24 29 -26 -27 -28 -29 -30 -31
leaf_value=0.036369046662002802 0.040559242800809442 0.024499854818258011 -0.019724242213385132 -0.043204054043347137 0.026740709759323536 0.036242932128352771 -0.022471088113985502 0.010531722827230201 -0.035816325581803615 -0.01912607941552099 -0.0058812446340175545 0.0055358915824678034 -0.017371646290074191 0.0060081227692878915 0.019852144346095443 -0.013132547890299072 -0.0012242619302411453 0.0082252555890590887 -0.027404782289366533 -0.03488544450589904 -0.032060145234125995 -0.044611331264303181 0.017091237421400344 -0.014598240355650586 -0.0071398731485932277 0.018432822258825806 0.044315856381876705 -0.025452250606732753 0.0036151821250623127 -0.037254503149383084
leaf_weight=63 20 686 2184 1123 261 583 98 467 49 83 722 111 248 450 41 3420 777 512 1640 3456 860 357 1724 45 113 276 1195 1763 424 1670
leaf_count=63 20 686 2184 1123 261 583 98 467 49 83 722 111 248 450 41 3420 777 512 1640 3456 860 357 1724 45 113 276 1195 1763 424 1670
internal_value=-0.0125406 0.0158147 -0.026802 -0.0326773 0.0072219 0.0368888 -0.03337 0.0137596 0.00374644 0.00811617 0.000215789 -0.015289 -0.00503701 0.00502367 -0.00623812 -0.0125457 -0.000175742 0.0162819 -0.0313287 -0.0323135 -0.0294257 -0.0398427 0.0150611 -0.0392495 0.00708881 0.0107316 0.0416688 -0.0276188 -0.00236773 -0.03666
internal_weight=25421 8507 16914 11199 6043 2464 11012 3126 629 187 2917 5715 1394 1523 124 3531 797 2497 8174 6534 3078 455 2236 2838 580 726 1778 2623 1146 1715
internal_count=25421 8507 16914 11199 6043 2464 11012 3126 629 187 2917 5715 1394 1523 124 3531 797 2497 8174 6534 3078 455 2236 2838 580 726 1778 2623 1146 1715
is_linear=0
shrinkage=0.05


Tree=2
num_leaves=31
num_cat=0
split_feature=3 3 5 4 1 5 3 3 4 3 1 4 0 4 6 3 1 1 3 7 1 5 0 1 5 6 1 7 4 7
split_gain=3423.09 771.952 154.739 148.643 121.404 71.8178 70.7822 67.7709 71.5857 55.3586 45.6843 63.6812 44.6204 38.114 33.0823 25.2711 23.1992 21.098 20.3377 19.8751 19.4362 25.918 35.1338 17.7415 16.9939 16.6023 15.9701 19.7842 15.7925 15.735
threshold=0.90753690753690763 3.4933628318584078 18.930851432132393 5.0631204755178647 -1.0000000180025095e-35 19.989932885906043 1.7135258358662615 8.4801587301587329 4.9026479329893808 1.0000000180025095e-35 10.500000000000002 5.2795844502860847 50873.085000000006 4.1654735054161245 38544.083982712771 0.48573713676352975 11.500000000000002 41.500000000000007 0.29285714285714287 68.500000000000014 19.500000000000004 15.929629629629632 13305.301250000002 20.500000000000004 13.083333333333334 62672.092777777783 15.500000000000002 112.50000000000001 2.5574422837776072 81.500000000000014
decision_type=2 2 2 2 2 2 2 2 2 2 2 2 2 2 2 2 2 2 2 2 2 2 2 2 2 2 2 2 2 2
left_child=2 3 4 6 -1 16 12 8 -3 10 24 -12 14 18 19 -15 -5 -14 -4 -2 21 22 -13 -17 -6 -10 27 -7 -8 -18
right_child=1 7 13 5 9 26 28 -9 25 -11 11 20 17 15 -16 23 29 -19 -20 -21 -22 -23 -24 -25 -26 -27 -28 -29 -30 -31
leaf_value=0.036558634431949309 0.00092815870951328959 0.041383189565430467 -0.03781373536242455 0.0078058054254199413 -0.019057740993519257 -0.014091220144716013 0.026158116306219482 0.04167984164527528 0.020965761665155846 -0.022176059780653075 -0.042303340603633749 -0.027648189603377366 -0.0046825987857506994 -0.015258134954236786 -0.0028452393190577779 0.012459217916918147 0.0023606688695048898 -0.037837719182985341 -0.020529670279282528 0.016185563312322817 -0.040427922333280249 -0.024063275395910966 -0.034993951881835732 -0.022860629216549883 0.023352741785347464 -0.0032102323199311895 -0.0012399900152854342 0.011866421233686615 0.014004239884692186 -0.012917795301711821
leaf_weight=67 280 520 264 161 428 84 452 978 1336 1569 1540 2832 621 1659 495 146 182 52 479 898 540 1265 3828 47 25 75 1087 582 654 2275
leaf_count=67 280 520 264 161 428 84 452 978 1336 1569 1540 2832 621 1659 495 146 182 52 479 898 540 1265 3828 47 25 75 1087 582 654 2275
internal_value=-0.0124999 0.00896549 -0.0281828 0.000788193 -0.03056 -0.00533674 0.00854372 0.0309562 0.025525 -0.0309339 -0.0322478 -0.032951 0.00362774 -0.0171041 0.00800127 -0.013266 -0.0105812 -0.00724436 -0.026671 0.012559 -0.0312496 -0.0306242 -0.0318703 0.00385801 -0.0167172 0.0196807 0.00249557 0.00859248 0.0189713 -0.0117861
internal_weight=25421 10732 14689 7823 12094 4371 3452 2909 1931 12027 10458 10005 2346 2595 1673 1852 2618 673 743 1178 8465 7925 6660 193 453 1411 1753 666 1106 2457
internal_count=25421 10732 14689 7823 12094 4371 3452 2909 1931 12027 10458 10005 2346 2595 1673 1852 2618 673 743 1178 8465 7925 6660 193 453 1411 1753 666 1106 2457
is_linear=0
shrinkage=0.05


Tree=3
num_leaves=31
num_cat=0
split_feature=5 2 1 5 5 2 5 2 5 5 1 2 5 2 4 2 0 0 4 1 4 2 6 2 4 4 1 7 5 1
split_gain=2296.22 583.531 559.362 258.79 179.853 128.842 109.545 122.597 107.321 83.8335 77.8261 55.8956 52.735 48.0193 47.3972 36.3084 33.7376 33.3369 33.1335 28.1085 27.4636 25.8892 25.323 22.9933 24.7446 20.6336 19.9117 19.3705 18.6241 20.5251
threshold=18.971391972672933 16.83024691358025 12.500000000000002 14.9562343358396 12.708333333333334 16.622023809523814 34.937500000000007 20.568735211052594 20.230208333333337 17.598611111111115 -1.0000000180025095e-35 13.437500000000002 18.038152419117548 18.027756939234809 4.7232339513846915 14.863799283154124 13305.301250000002 48607.085000000006 5.0752158056400782 18.500000000000004 4.2248339465967133 13.437500000000002 43820.64275704226 18.826923076923077 11.824765755784846 3.2283453946815661 2.5000000000000004 83.500000000000014 19.522727272727277 15.500000000000002
decision_type=2 2 2 2 2 2 2 2 2 2 2 2 2 2 2 2 2 2 2 2 2 2 2 2 2 2 2 2 2 2
left_child=2 15 4 14 10 9 7 8 23 21 -1 -6 19 -10 -4 -2 -16 18 22 -7 -19 -5 -15 24 28 -9 -12 -11 -3 -30
right_child=1 6 3 5 11 12 -8 25 13 27 26 -13 -14 17 16 -17 -18 20 -20 -21 -22 -23 -24 -25 -26 -27 -28 -29 29 -31
leaf_value=0.036201366280309032 0.043458488617185119 -0.0052077661359798263 -0.043879280492324022 0.0078774372196470915 0.029296616564676373 -0.027416027559267354 0.018047090059639337 -0.019790124744250778 0.030335726184555736 0.0039569953098850278 -0.0023566579664963602 0.00058897043698123383 -0.019603670456454506 0.01616371844258116 -0.027844134864208933 0.023714320806571033 -0.035164920619414321 -0.015487499227421179 0.0027847700720788756 -0.040179386762363906 0.0047293559841682046 -0.015590654186853887 -0.0048919454989129613 -0.014673689335522898 -0.019495960086664207 -0.0078843016900199177 -0.023066724621557764 0.031577111968616831 0.017592089894239323 -0.0026085965709002476
leaf_weight=72 964 693 966 124 572 1764 969 567 238 152 149 241 2090 1484 2773 307 3639 257 1056 571 485 2248 158 543 186 1016 525 109 250 253
leaf_count=72 964 693 966 124 572 1764 969 567 238 152 149 241 2090 1484 2773 307 3639 257 1056 571 485 2248 158 543 186 1016 525 109 250 253
internal_value=-0.012398 0.00717734 -0.0239339 -0.0270066 0.00451888 -0.020162 0.00226601 0.000137998 0.00360934 -0.0114043 -0.01321 0.0207867 -0.0253731 0.00861558 -0.0335544 0.0386894 -0.0319989 0.00711285 0.00969412 -0.0305372 -0.00227298 -0.0143638 0.0141377 -0.00595584 -0.00253052 -0.0121487 -0.0184884 0.0154918 0.000107914 0.00743151
internal_weight=25421 9426 15995 14436 1559 7058 8155 7186 5603 2633 746 813 4425 3678 7378 1271 6412 3440 2698 2335 742 2372 1642 1925 1382 1583 674 261 1196 503
internal_count=25421 9426 15995 14436 1559 7058 8155 7186 5603 2633 746 813 4425 3678 7378 1271 6412 3440 2698 2335 742 2372 1642 1925 1382 1583 674 261 1196 503
is_linear=0
shrinkage=0.05


Tree=4
num_leaves=31
num_cat=0
split_feature=8 8 8 1 8 3 8 0 1 1 1 8 6 2 2 8 0 4 1 1 3 1 0 8 1 8 8 3 1 0
split_gain=3971.8 606.965 448.079 121.042 103.829 63.7392 46.3728 29.9833 33.0938 29.0465 28.0672 26.3889 17.868 16.6499 16.422 15.8909 19.432 24.0959 15.8998 14.6148 13.1472 12.9608 11.865 10.9382 10.8184 10.3538 10.2534 9.82077 9.02044 8.50811
threshold=0.5006265664160402 0.83602150537634423 0.2873670212765958 2.5000000000000004 0.67217630853994492 3.8111285266457688 0.17780731812503162 44694.810000000005 44.500000000000007 15.500000000000002 -1.0000000180025095e-35 0.37053001277139214 58890.41226288661 18.274436090225567 11.795683453237412 0.20508259681429872 13305.301250000002 5.8644887902993519 7.5000000000000009 11.500000000000002 0.29285714285714287 12.500000000000002 6426.880000000001 0.98549107142857151 15.500000000000002 0.029615384615384602 0.64026143790849688 1.5031250000000003 4.5000000000000009 119847.64500000002
decision_type=2 2 2 2 2 2 2 2 2 2 2 2 2 2 2 2 2 2 2 2 2 2 2 2 2 2 2 2 2 2
left_child=2 4 3 10 9 -3 25 21 27 13 -1 -4 -11 20 -12 16 17 18 -8 -13 -2 -6 -23 -7 -19 -5 -15 -9 -27 -28
right_child=1 5 11 6 7 23 15 8 -10 12 14 19 -14 26 -16 -17 -18 24 -20 -21 -22 22 -24 -25 -26 28 29 -29 -30 -31
leaf_value=0.03496355549210594 0.040093199796974663 0.023564240157480505 -0.019216676560254435 -0.043871734502530915 0.026399547786659729 0.03589132774372044 -0.021714911777146011 -0.0015022093333238954 -0.035816325581803615 -0.0022993821574149114 -0.018808593735637438 0.005630907417182719 -0.017101408256172772 0.0058798540673322148 0.019869291041864131 -0.026467379126470625 -0.03454556270110145 -0.03181564445239167 -0.044397739308745895 -0.012804002698009824 -0.00096404603784340536 0.0079416836066911866 0.016610045477559621 0.044245248131111081 -0.024970237980795725 -0.014745031361994537 0.021011459190458298 0.011968521332872191 -0.037122035445515504 -0.0085386757980342263
leaf_weight=63 20 686 2184 642 261 583 98 215 49 1146 83 111 248 450 41 1640 3456 860 365 3420 777 512 1724 1195 1755 46 249 365 2150 27
leaf_count=63 20 686 2184 642 261 583 98 215 49 1146 83 111 248 450 41 1640 3456 860 365 3420 777 512 1724 1195 1755 46 249 365 2150 27
internal_value=-0.0122725 0.0155953 -0.0262887 -0.0321023 0.0070671 0.0365109 -0.0327797 0.0133982 0.00364155 0.000282414 0.00778734 -0.0148966 -0.00493274 0.00505584 -0.00601994 -0.0308678 -0.0319723 -0.029083 -0.0395966 -0.0122245 6.62487e-05 0.0158559 0.0146252 0.041506 -0.0272215 -0.0382862 0.0105334 0.00697506 -0.0366533 0.0181207
internal_weight=25421 8507 16914 11199 6043 2464 11012 3126 629 2917 187 5715 1394 1523 124 8174 6534 3078 463 3531 797 2497 2236 1778 2615 2838 726 580 2196 276
internal_count=25421 8507 16914 11199 6043 2464 11012 3126 629 2917 187 5715 1394 1523 124 8174 6534 3078 463 3531 797 2497 2236 1778 2615 2838 726 580 2196 276
is_linear=0
shrinkage=0.05


Tree=5
num_leaves=31
num_cat=0
split_feature=8 8 8 1 8 3 5 8 1 8 1 1 1 8 1 1 2 5 3 1 8 5 8 3 5 1 7 1 7 3
split_gain=3849.48 552.373 543.171 109.654 60.113 59.992 54.4103 44.2086 36.2169 32.4159 28.7641 24.9093 18.4619 18.4596 18.3012 16.7867 14.8964 12.8 11.9838 11.3149 10.779 7.90046 7.69168 6.44522 8.24417 9.19251 12.8846 5.29183 5.48474 4.92963
threshold=0.57359307359307377 0.83602150537634423 0.2873670212765958 5.5000000000000009 0.661904761904762 3.8111285266457688 13.224080267558529 0.37053001277139214 -1.0000000180025095e-35 0.10912698412698411 44.500000000000007 11.500000000000002 59.500000000000007 0.19970238095238099 14.500000000000002 10.500000000000002 11.795683453237412 16.507142857142863 1.5870469648740719 2.5000000000000004 0.44954090834563049 13.329910015649455 0.98549107142857151 2.0736486486486494 15.929629629629632 14.500000000000002 128.00000000000003 15.500000000000002 653.00000000000011 1.1367880485527546
decision_type=2 2 2 2 2 2 2 2 2 2 2 2 2 2 2 2 2 2 2 2 2 2 2 2 2 2 2 2 2 2
left_child=2 4 3 8 14 29 -5 -4 -1 27 15 -9 -12 -11 18 -6 -10 -16 -2 -18 21 -13 -7 24 -17 26 -26 28 -8 -3
right_child=1 5 7 6 10 22 9 11 16 13 12 20 -14 -15 17 23 19 -19 -20 -21 -22 -23 -24 -25 25 -27 -28 -29 -30 -31
leaf_value=0.032143949267679245 0.032754099177053346 0.0045249329600483184 -0.019194116089501508 -0.042997137013027133 0.035635688316031568 0.036968118268214951 -0.037578434196729515 0.0049870567732278595 -0.021977597354164977 -0.031420541587859424 -0.035425530976437511 -0.044786807149648666 0.0030932482276314305 -0.025623136540865111 -0.040017992407083515 -0.010919315587463124 0.022420365572907032 0.00020227682086871037 0.0076507543931231122 -0.008847321966482748 -0.0081606082341441743 -0.013231039488671079 0.044032086354383063 0.015752401412141011 0.0019225692614739717 0.010545002905393536 0.035379304932751536 -0.041116369736874187 -0.024475843466330915 0.025246675243126411
leaf_weight=58 65 30 2199 1119 82 572 315 246 151 6761 47 20 92 1723 20 42 42 1811 177 93 1557 2406 1181 1115 43 1799 87 842 107 663
leaf_count=58 65 30 2199 1119 82 572 315 246 151 6761 47 20 92 1723 20 42 42 1811 177 93 1557 2406 1181 1115 43 1799 87 842 107 663
internal_value=-0.0120823 0.0171032 -0.0250312 -0.031675 0.00814634 0.0368037 -0.0325548 -0.0134438 -0.00388202 -0.0313561 0.0123309 -0.0104537 -0.00993109 -0.0302432 0.00147089 0.0133076 -0.011188 -0.000237049 0.0143934 0.000880403 -0.0114074 -0.0134912 0.0417271 0.0127143 0.0109957 0.0114729 0.0243128 -0.038826 -0.0342562 0.0243496
internal_weight=25465 7826 17639 11211 5380 2446 10867 6428 344 9748 3307 4229 139 8484 2073 3168 286 1831 242 135 3983 2426 1753 3086 1971 1929 130 1264 422 693
internal_count=25465 7826 17639 11211 5380 2446 10867 6428 344 9748 3307 4229 139 8484 2073 3168 286 1831 242 135 3983 2426 1753 3086 1971 1929 130 1264 422 693
is_linear=0
shrinkage=0.05


Tree=6
num_leaves=31
num_cat=0
split_feature=8 8 8 8 8 8 2 0 7 8 0 0 8 0 0 5 7 5 0 8 2 0 4 4 8 6 8 8 5 5
split_gain=3769.88 546.702 546.552 59.0458 42.0771 40.8058 37.3741 30.666 39.0734 21.6574 18.8687 13.9536 12.5489 11.5774 10.7969 10.1571 6.59564 6.12535 6.09011 5.69366 4.91539 5.3493 5.45846 4.77084 4.44582 4.23867 4.23635 3.95418 3.89988 3.88048
threshold=0.57359307359307377 0.2873670212765958 0.83602150537634423 0.661904761904762 0.11316872427983536 0.37053001277139214 14.863799283154124 47510.905000000006 988.00000000000011 0.20508259681429872 32664.915000000005 50269.56500000001 0.44954090834563049 6759.2850000000008 61648.325000000004 22.951327433628325 146.00000000000003 15.455357142857144 69799.575000000012 0.041897810218978107 18.575794956140353 3515.8900000000008 3.6607386631242798 3.6053687990590757 0.96933667083854835 32911.012711038966 0.97393048128342252 0.94590643274853814 21.714987714987718 19.472439180537773
decision_type=2 2 2 2 2 2 2 2 2 2 2 2 2 2 2 2 2 2 2 2 2 2 2 2 2 2 2 2 2 2
left_child=1 4 3 -2 19 28 17 13 -9 10 -6 -12 -7 20 -10 26 25 -4 -13 -1 21 22 -5 -22 27 -15 -8 -17 -3 -28
right_child=2 5 6 7 9 12 15 8 14 -11 11 18 -14 16 -16 24 -18 -19 -20 -21 23 -23 -24 -25 -26 -27 29 -29 -30 -31
leaf_value=-0.042570545094693366 0.0014474135173913282 -0.017919321059408487 0.030154651999676037 0.00089822094887495043 -0.029779493149797033 -0.012467773766711264 0.021020881442742036 0.0094584094253494528 0.0089627949969976074 -0.024908580259629283 -0.039550818701585139 -0.02922382792401081 -0.0069168953406642912 0.015225979155181228 -0.025266483580836885 0.031981771603131141 0.018789832790794936 0.043555513465869694 -0.037777248794032686 -0.036447583002881513 0.021386737127746035 0.0048874220760560345 0.025031405914819144 0.0040275160277464432 0.038268365590029385 0.007051265936948963 0.022876209784722466 0.012757297899694212 -0.024922560135163876 0.034012677741702649
leaf_weight=652 2073 1978 92 29 5914 2521 273 481 28 1633 1005 819 1708 555 130 195 1214 1166 279 909 44 88 122 394 365 222 132 31 221 192
leaf_count=652 2073 1978 92 29 5914 2521 273 481 28 1633 1005 819 1708 555 130 195 1214 1166 279 909 44 88 122 394 365 222 132 31 221 192
internal_value=-0.0119093 -0.0247236 0.0169728 0.00806334 -0.0313889 -0.0130986 0.0365693 0.0122106 0.00237216 -0.0301569 -0.031226 -0.0352937 -0.0102259 0.0145669 -0.0192005 0.0302093 0.0164875 0.0425755 -0.0313972 -0.039005 0.00891851 0.0146861 0.0203966 0.00577136 0.034856 0.0128903 0.0256094 0.0293448 -0.0186231 0.0294756
internal_weight=25465 17639 7826 5380 11211 6428 2446 3307 639 9650 8017 2103 4229 2668 158 1188 1991 1258 1098 1561 677 239 151 438 591 777 597 226 2199 324
internal_count=25465 17639 7826 5380 11211 6428 2446 3307 639 9650 8017 2103 4229 2668 158 1188 1991 1258 1098 1561 677 239 151 438 591 777 597 226 2199 324
is_linear=0
shrinkage=0.05


Tree=7
num_leaves=31
num_cat=0
split_feature=3 3 3 4 1 3 4 3 4 2 0 5 1 5 0 1 7 4 4 3 1 1 1 3 4 3 1 5 4 2
split_gain=3139.55 723.361 195.865 151.16 119.498 82.8287 78.8664 69.3466 67.3619 56.8035 44.5552 40.1174 35.161 30.1458 28.1568 27.1199 26.4721 22.1753 31.7108 20.4371 19.9903 19.8303 19.0429 15.276 15.1487 19.4796 18.9701 14.56 14.0571 12.8113
threshold=0.90753690753690763 3.4933628318584078 -1.7100054600054599 5.0631204755178647 5.5000000000000009 8.4801587301587329 4.9026479329893808 1.7135258358662615 5.7155322846966401 18.428929765886291 50873.085000000006 18.930851432132393 -1.0000000180025095e-35 18.21437074829932 13305.301250000002 10.500000000000002 988.00000000000011 13.965882681289143 12.012585986963051 0.99065420560747663 19.500000000000004 15.500000000000002 11.500000000000002 0.63283699059561138 4.1654735054161245 0.48573713676352975 21.500000000000004 7.1357808857808864 2.5574422837776072 61.95454545454546
decision_type=2 2 2 2 2 2 2 2 2 2 2 2 2 2 2 2 2 2 2 2 2 2 2 2 2 2 2 2 2 2
left_child=2 3 4 7 12 6 -3 10 -6 22 16 15 -1 14 20 -4 -2 18 -8 -12 -10 -11 -5 -17 -13 -26 -27 -14 -9 -23
right_child=1 5 11 9 8 -7 17 28 13 21 19 24 27 -15 -16 23 -18 -19 -20 -21 -22 29 -24 -25 25 26 -28 -29 -30 -31
leaf_value=0.031926732968355791 0.003869171181564482 0.041076068440268163 0.010098845239911902 0.0066623653085636243 -0.042738488501507965 0.041996464542891576 0.016978313696845142 0.025892096273022854 -0.026386010821815454 0.0090581043166766701 -0.018590317004256781 -0.020678458010811484 -0.020614955231349992 -0.016655814377640292 -0.033763347480139434 -0.025056229725462245 0.017210678553016372 0.0021005729270326171 0.03854700002600165 -0.00041908418952089519 -0.041925754080706118 -0.0032398649163892478 -0.010711254554264582 -0.014688677177989433 -0.013605616965665007 0.011121173988645658 -0.026736238618226101 0.0016472427231435487 0.014388944117724321 0.02890714950626716
leaf_weight=61 1139 506 61 168 1297 974 1035 451 2876 631 243 640 151 378 4276 2506 552 188 204 426 223 984 2578 414 1484 156 42 143 646 32
leaf_count=61 1139 506 61 168 1297 974 1035 451 2876 631 243 640 151 378 4276 2506 552 188 204 426 223 984 2578 414 1484 156 42 143 646 32
internal_value=-0.0117287 0.00880007 -0.0267429 0.000909838 -0.0310755 0.0301067 0.0241156 0.00873124 -0.0321918 -0.00524509 0.00390309 -0.0190588 -0.00261908 -0.0304274 -0.0311332 -0.022897 0.00822429 0.0181016 0.0205296 -0.0070194 -0.0275042 0.00209634 -0.00964834 -0.0235863 -0.0141313 -0.0116402 0.00309081 -0.00978674 0.0191181 -0.00222736
internal_weight=25465 10757 14708 7850 9405 2907 1933 3457 9050 4393 2360 5303 355 7753 7375 2981 1691 1427 1239 669 3099 1647 2746 2920 2322 1682 198 294 1097 1016
internal_count=25465 10757 14708 7850 9405 2907 1933 3457 9050 4393 2360 5303 355 7753 7375 2981 1691 1427 1239 669 3099 1647 2746 2920 2322 1682 198 294 1097 1016
is_linear=0
shrinkage=0.05


Tree=8
num_leaves=31
num_cat=0
split_feature=8 8 8 1 5 8 8 2 1 0 0 8 1 1 1 1 2 1 5 5 0 1 6 8 5 1 1 1 5 5
split_gain=3616.41 558.786 532.932 111.202 57.6232 56.4526 47.7516 40.9224 32.763 29.5394 27.5898 31.2446 24.7685 22.6236 21.5081 17.849 13.5071 13.5016 12.5272 11.6003 11.57 10.9218 9.58833 8.76707 8.05274 7.5425 7.09254 11.7902 6.9037 6.17876
threshold=0.57359307359307377 0.27296157450796626 0.83602150537634423 5.5000000000000009 13.224080267558529 0.661904761904762 0.36811201445347785 14.863799283154124 -1.0000000180025095e-35 47510.905000000006 13305.301250000002 0.20508259681429872 44.500000000000007 11.500000000000002 20.500000000000004 14.500000000000002 11.795683453237412 10.500000000000002 16.507142857142863 22.951327433628325 6759.2850000000008 2.5000000000000004 43897.436984126987 0.44954090834563049 13.329910015649455 31.500000000000004 17.500000000000004 15.500000000000002 15.455357142857144 21.065365499525331
decision_type=2 2 2 2 2 2 2 2 2 2 2 2 2 2 2 2 2 2 2 2 2 2 2 2 2 2 2 2 2 2
left_child=1 3 5 8 -5 15 -3 28 -1 17 14 -12 26 -8 -6 22 -10 -7 -17 -9 25 -18 -2 24 -15 -19 27 -11 -4 -27
right_child=2 6 7 4 10 9 13 19 16 12 11 -13 -14 23 -16 18 21 20 -20 -21 -22 -23 -24 -25 -26 29 -28 -29 -30 -31
leaf_value=0.031027511378814432 0.0050620300979673412 -0.018325026277741491 0.029177526165933717 -0.042883390895118612 -0.026587772333681078 0.03698654638719745 0.0050080623333834534 0.024508136523173032 -0.020460593374754421 0.0085701170176123061 -0.034755712339260614 -0.023996329742722811 -0.031456688048318027 -0.0440582312643528 -0.04028827163998721 -0.039579971581697466 0.022467964615983271 0.010201517861569302 0.00020945953316243456 0.034389833554108636 0.015672819018187151 -0.008251836247021152 0.025035436221541047 -0.0076710472030673705 -0.012202415616078922 -0.02527155369968602 0.015116685950509407 -0.0080374039105412642 0.043404351670045797 0.0029997703618873323
leaf_weight=58 131 2580 92 1113 3631 64 246 597 151 277 4591 791 50 20 311 20 42 560 1811 591 1949 93 111 1557 2455 27 138 174 1166 68
leaf_count=58 131 2580 92 1113 3631 64 246 597 151 277 4591 791 50 20 311 20 42 560 1811 591 1949 93 111 1557 2455 27 138 174 1166 68
internal_value=-0.0115598 -0.0241105 0.0167283 -0.0312084 -0.0321303 0.00793056 -0.0129525 0.0360791 -0.00323756 0.0119857 -0.0308467 -0.0331744 0.00232971 -0.00971247 -0.0276687 0.00146155 -0.0101864 0.0142983 -0.00022516 0.029424 0.0137407 0.00130544 0.0142234 -0.0106106 -0.0124598 0.00799161 0.00519782 0.00216278 0.0423639 -0.00503524
internal_weight=25465 17639 7826 10781 10437 5380 6858 2446 344 3307 9324 5382 639 4278 3942 2073 286 2668 1831 1188 2604 135 242 4032 2475 655 589 451 1258 95
internal_count=25465 17639 7826 10781 10437 5380 6858 2446 344 3307 9324 5382 639 4278 3942 2073 286 2668 1831 1188 2604 135 242 4032 2475 655 589 451 1258 95
is_linear=0
shrinkage=0.05


Tree=9
num_leaves=31
num_cat=0
split_feature=8 8 8 1 5 8 8 2 1 0 7 0 1 8 1 1 1 2 1 5 5 0 1 0 8 5 1 5 4 1
split_gain=3532.52 567.752 526.633 112.941 55.4953 55.4758 54.7676 43.1853 30.3655 28.6082 37.7116 28.4132 24.6134 22.3027 21.6287 17.2837 13.5227 12.7239 12.4461 12.3308 12.2778 11.0368 10.6952 8.8294 7.93253 8.02597 7.40527 7.38641 7.12401 6.7543
threshold=0.57359307359307377 0.24500000000000002 0.83602150537634423 5.5000000000000009 13.224080267558529 0.36811201445347785 0.661904761904762 14.863799283154124 -1.0000000180025095e-35 47510.905000000006 988.00000000000011 13305.301250000002 19.500000000000004 0.19970238095238099 11.500000000000002 14.500000000000002 10.500000000000002 11.795683453237412 17.500000000000004 22.951327433628325 16.507142857142863 6759.2850000000008 2.5000000000000004 61648.325000000004 0.44954090834563049 13.329910015649455 31.500000000000004 15.455357142857144 8.3326715597131145 15.500000000000002
decision_type=2 2 2 2 2 2 2 2 2 2 2 2 2 2 2 2 2 2 2 2 2 2 2 2 2 2 2 2 2 2
left_child=1 3 6 8 -5 -3 15 27 -1 16 -11 12 29 -13 -7 28 -8 -10 23 -9 -17 26 -19 -12 25 -16 -18 -4 -2 -6
right_child=2 5 7 4 11 14 9 19 17 10 18 13 -14 -15 24 20 21 22 -20 -21 -22 -23 -24 -25 -26 -27 -28 -29 -30 -31
leaf_value=0.030011093243956566 0.021442074065798542 -0.018317917434038471 0.028606661494173437 -0.042835405821933889 -0.029126490612510637 0.0049585715467697087 0.03678427619743161 0.023885094450546471 -0.019956715629525383 0.0092615597029439261 0.016128758672857658 -0.034563444880237174 -0.038944569198891173 -0.024177125265013498 -0.04361764892935753 -0.039184171929955484 0.010094948436453706 0.022280731579909722 -0.043831264105086268 0.03407320090508098 0.00020707115538167337 0.015407386867743053 -0.0081187419993903054 -0.017777893932846688 -0.007516661799972184 -0.011814836562893784 -0.0050025590131745528 0.043322456677925114 0.0041126623767643025 -0.024501223230344902
leaf_weight=58 138 2983 92 1106 1265 246 64 597 146 481 24 4556 430 583 20 20 560 42 38 591 1811 1949 93 96 1557 2455 95 1166 104 2099
leaf_count=58 138 2983 92 1106 1265 246 64 597 146 481 24 4556 430 583 20 20 560 42 38 591 1811 1949 93 96 1557 2455 95 1166 104 2099
internal_value=-0.0114041 -0.0238085 0.016554 -0.0313118 -0.0322703 -0.0130841 0.00780833 0.03579 -0.00292711 0.0118025 0.0022999 -0.0309622 -0.0276803 -0.0333852 -0.00943464 0.00143659 0.0140784 -0.00972574 -0.0188935 0.0289534 -0.000223199 0.0135203 0.00133887 -0.0109966 -0.0103128 -0.0120718 0.00790523 0.0422463 0.0139947 -0.0262405
internal_weight=25465 17639 7826 10378 10039 7261 5380 2446 339 3307 639 8933 3794 5139 4278 2073 2668 281 158 1188 1831 2604 135 120 4032 2475 655 1258 242 3364
internal_count=25465 17639 7826 10378 10039 7261 5380 2446 339 3307 639 8933 3794 5139 4278 2073 2668 281 158 1188 1831 2604 135 120 4032 2475 655 1258 242 3364
is_linear=0
shrinkage=0.05


Tree=10
num_leaves=31
num_cat=0
split_feature=8 8 8 1 3 8 5 8 1 1 0 8 1 1 6 0 3 1 1 6 5 8 1 0 3 4 0 3 0 0
split_gain=3466.04 563.365 526.743 116.718 83.5092 75.4476 53.407 43.7306 33.0931 25.1671 23.1178 26.0812 24.611 22.5391 25.6273 22.3379 33.1011 22.6118 13.5788 13.1778 12.4116 11.6914 9.63782 9.24689 8.69894 8.21288 7.59905 7.57178 7.3822 7.25714
threshold=0.51149613163343155 0.83602150537634423 0.22401433691756273 5.5000000000000009 3.8111285266457688 0.661904761904762 13.224080267558529 0.3647450110864745 -1.0000000180025095e-35 11.500000000000002 13305.301250000002 0.20508259681429872 20.500000000000004 15.500000000000002 46494.079062500008 44694.810000000005 1.329573934837093 44.500000000000007 10.500000000000002 58890.41226288661 7.1357808857808864 0.98549107142857151 2.5000000000000004 6759.2850000000008 2.1678735429176972 8.2672964286912496 32149.775000000005 2.0736486486486494 1544.3200000000002 1274.6137500000002
decision_type=2 2 2 2 2 2 2 2 2 2 2 2 2 2 2 2 2 2 2 2 2 2 2 2 2 2 2 2 2 2
left_child=2 5 3 8 -3 13 -5 28 -1 -9 12 -12 29 14 24 18 17 25 -7 -15 -10 -6 -22 27 -2 -17 -26 -20 -4 -8
right_child=1 4 7 6 21 15 10 9 20 -11 11 -13 -14 19 -16 16 -18 -19 23 -21 22 -23 -24 -25 26 -27 -28 -29 -30 -31
leaf_value=0.030512442608033458 -0.0033912568449902545 0.020306721417342917 -0.0099951933045963684 -0.04247673321923201 0.035041194188183751 0.038191396889409854 -0.022965809497610127 0.0062131679690447016 -0.020053717380967635 -0.010801957875480038 -0.034164633976828118 -0.022548080132047413 -0.041828145522022575 -0.0025643435861618727 0.014839796116359012 -0.0075217185803991525 0.013089996954859719 -0.042857141721816289 0.0043291374169808694 -0.017853338382908226 0.020850084322903837 0.043669668157650124 -0.0077341608251586111 0.015063437189212624 3.7450911894218247e-05 0.015610414680014265 0.018049745845536775 0.015703260677348299 -0.01862074509290481 -0.028070024279207968
leaf_weight=62 599 680 273 1096 580 56 951 231 145 3670 4666 539 291 1084 430 209 406 42 433 162 42 1215 99 1905 134 47 104 221 2715 2601
leaf_count=62 599 680 273 1096 580 56 951 231 145 3670 4666 539 291 1084 430 209 406 42 433 162 42 1215 99 1905 134 47 104 221 2715 2601
internal_value=-0.0113257 0.015241 -0.0240228 -0.0310759 0.0352287 0.00675851 -0.0320527 -0.0132809 -0.00260344 -0.0097944 -0.03079 -0.0329617 -0.0278487 0.000222822 0.00491866 0.011707 0.0038014 -0.00885352 0.0138354 -0.00455216 -0.0097824 0.0408816 0.000780295 0.0133024 -0.000178221 -0.0032748 0.00790837 0.00817269 -0.0178327 -0.0267034
internal_weight=25688 8307 17381 10492 2475 5832 10144 6889 348 3901 9048 5205 3843 2513 1267 3319 704 298 2615 1246 286 1795 141 2559 837 256 238 654 2988 3552
internal_count=25688 8307 17381 10492 2475 5832 10144 6889 348 3901 9048 5205 3843 2513 1267 3319 704 298 2615 1246 286 1795 141 2559 837 256 238 654 2988 3552
is_linear=0
shrinkage=0.05


Tree=11
num_leaves=31
num_cat=0
split_feature=8 8 8 1 3 8 5 8 1 1 0 8 1 1 0 7 8 1 1 2 1 8 2 7 1 3 0 0 3 0
split_gain=3385.98 557.647 537.09 114.828 87.2902 73.0086 54.814 41.1113 31.1043 24.0389 23.0855 27.267 24.8789 21.9783 21.4172 41.6686 17.2437 14.6275 13.4997 12.3752 12.1539 12.0846 11.9302 9.72437 9.38779 8.739 8.65964 8.65777 7.51188 7.08107
threshold=0.51149613163343155 0.83602150537634423 0.22401433691756273 5.5000000000000009 3.8111285266457688 0.661904761904762 13.224080267558529 0.3647450110864745 -1.0000000180025095e-35 11.500000000000002 13305.301250000002 0.19970238095238099 20.500000000000004 15.500000000000002 44694.810000000005 988.00000000000011 0.64026143790849688 44.500000000000007 10.500000000000002 15.522727272727273 10.500000000000002 0.98549107142857151 11.795683453237412 688.50000000000011 2.5000000000000004 2.1678735429176972 6759.2850000000008 12916.405000000001 2.0736486486486494 1274.6137500000002
decision_type=2 2 2 2 2 2 2 2 2 2 2 2 2 2 2 2 2 2 2 2 2 2 2 2 2 2 2 2 2 2
left_child=2 5 3 8 -3 13 -5 -4 -1 -9 12 -12 29 16 18 -16 20 -17 -7 -15 -2 -6 -10 -21 -24 -22 28 -18 -20 -8
right_child=1 4 7 6 21 14 10 9 22 -11 11 -13 -14 19 15 17 27 -19 26 23 25 -23 24 -25 -26 -27 -28 -29 -30 -31
leaf_value=0.029503563286796694 0.027434805590151386 0.019716930750428754 -0.01728719066419555 -0.042372091636605512 0.034814634708494975 0.037884501700422596 -0.022749674899971699 0.0061513052555809029 -0.019631897632418009 -0.010478090905921904 -0.033979158102822218 -0.02244345846378969 -0.041648471401524306 -0.040053022932261234 0.010691200861623302 -0.009854061900353088 -0.0095736193036039668 -0.044999998807907109 0.0042756480735610513 -0.0069620164443176301 -0.0025460745964577701 0.043587001302114736 0.020601868984245122 0.0024901061031903649 -0.0076091643987279958 0.0080327976107820061 0.014772319223288392 0.018852759315259756 0.015604687727960377 -0.027791590344122125
leaf_weight=62 44 680 2988 1096 580 56 951 231 145 3670 4629 576 291 24 532 134 30 38 433 813 667 1215 42 409 99 276 1905 250 221 2601
leaf_count=62 44 680 2988 1096 580 56 951 231 145 3670 4629 576 291 24 532 134 30 38 433 813 667 1215 42 409 99 276 1905 250 221 2601
internal_value=-0.0111711 0.0150869 -0.0237208 -0.0308428 0.034973 0.00664764 -0.0318116 -0.0128738 -0.00260182 -0.00949337 -0.0305324 -0.0327026 -0.0275932 0.000218462 0.0115155 0.00377454 0.00485551 -0.0176189 0.0135995 -0.00449674 0.00174868 0.0407525 -0.00956173 -0.00379842 0.000794122 0.000550181 0.0130681 0.0158071 0.00810396 -0.0264417
internal_weight=25688 8307 17381 10492 2475 5832 10144 6889 348 3901 9048 5205 3843 2513 3319 704 1267 172 2615 1246 987 1795 286 1222 141 943 2559 280 654 3552
internal_count=25688 8307 17381 10492 2475 5832 10144 6889 348 3901 9048 5205 3843 2513 3319 704 1267 172 2615 1246 987 1795 286 1222 141 943 2559 280 654 3552
is_linear=0
shrinkage=0.05


Tree=12
num_leaves=31
num_cat=0
split_feature=8 8 8 1 8 3 2 8 1 8 3 0 0 8 1 1 1 1 8 1 2 1 3 2 4 0 8 1 3 0
split_gain=3308.82 552.455 546.892 112.99 95.6029 48.4856 41.6206 38.7031 29.236 26.4449 26.3429 41.0246 25.312 27.1407 23.1946 22.9616 21.4024 17.008 16.6598 12.5519 12.0953 11.921 11.7823 11.4679 11.2357 10.5652 9.67682 9.14431 8.5481 8.4073
threshold=0.51149613163343155 0.96481178396072032 0.22401433691756273 5.5000000000000009 0.661904761904762 5.2129629629629637 14.645833333333334 0.3647450110864745 -1.0000000180025095e-35 0.047727272727272708 1.7489436619718313 50873.085000000006 13305.301250000002 0.20508259681429872 44.500000000000007 11.500000000000002 15.500000000000002 20.500000000000004 0.64026143790849688 10.500000000000002 15.522727272727273 10.500000000000002 1.4583011583011585 11.795683453237412 1.8559498540132993 13106.780000000001 0.83602150537634423 2.5000000000000004 2.1678735429176972 12916.405000000001
decision_type=2 2 2 2 2 2 2 2 2 2 2 2 2 2 2 2 2 2 2 2 2 2 2 2 2 2 2 2 2 2
left_child=2 4 3 8 16 22 -5 -4 -1 -8 11 25 17 -14 -13 -9 18 -11 21 -12 -18 -2 -3 -10 -22 -6 -21 -25 -23 -20
right_child=1 5 7 6 10 -7 9 15 23 12 19 14 13 -15 -16 -17 20 -19 29 26 24 28 -24 27 -26 -27 -28 -29 -30 -31
leaf_value=0.028528042954783284 0.027185398206876762 -0.0050971694042285286 -0.016762152987181981 -0.042387363462182887 0.0062389209802837719 0.043087424774585811 -0.039720737401638992 0.0060900584945769668 -0.0192189510320795 -0.02586563464084321 0.037600362037911138 -0.002652549723746516 -0.033500515763504886 -0.021609017645494395 -0.042804876914838468 -0.010162445197049376 -0.039580469826857256 -0.040390058955020992 -0.0094459710270166398 0.013892759629721344 -0.016411119054248132 -0.0025026474433771833 0.027167475115822022 0.020356608643418268 -0.0019243797592268135 0.015306455624945118 0.021998985037052061 -0.0074861880203690202 0.0079600367680330349 0.018566197419166566
leaf_weight=62 44 30 2988 818 510 1416 736 231 145 3466 68 293 4371 539 41 3670 24 214 30 1591 153 667 498 42 1069 868 479 99 276 250
leaf_count=62 44 30 2988 818 510 1416 736 231 145 3466 68 293 4371 539 41 3670 24 214 30 1591 153 667 498 42 1069 868 479 99 276 250
internal_value=-0.0110196 0.0149375 -0.0234255 -0.0306122 0.00781037 0.0382656 -0.0315733 -0.01248 -0.00259817 -0.0306247 0.0127619 0.00813999 -0.0298454 -0.0321951 -0.00758143 -0.00920004 0.000224448 -0.0267103 0.00480034 0.0164629 -0.00442857 0.00174657 0.0253343 -0.00934581 -0.00373819 0.0119505 0.0157685 0.000807411 0.000559602 0.0155649
internal_weight=25688 8307 17381 10492 6363 1944 10144 6889 348 9326 3850 1712 8590 4910 334 3901 2513 3680 1267 2138 1246 987 528 286 1222 1378 2070 141 943 280
internal_count=25688 8307 17381 10492 6363 1944 10144 6889 348 9326 3850 1712 8590 4910 334 3901 2513 3680 1267 2138 1246 987 528 286 1222 1378 2070 141 943 280
is_linear=0
shrinkage=0.05


Tree=13
num_leaves=31
num_cat=0
split_feature=8 8 8 8 3 8 8 3 0 0 7 0 3 0 3 3 0 3 5 8 0 4 0 8 0 0 3 0 3 0
split_gain=3233.29 555.996 548.755 91.9348 51.6262 36.4509 27.7646 26.5979 39.4782 17.7443 16.4455 13.6234 12.4742 13.3935 11.1003 10.0299 9.80333 9.34862 9.34274 8.79424 8.63648 7.304 6.54404 6.146 7.51117 17.7551 11.3617 12.7639 7.42749 12.3724
threshold=0.51149613163343155 0.22401433691756273 0.96481178396072032 0.661904761904762 5.2129629629629637 0.3647450110864745 0.047727272727272708 1.7489436619718313 50873.085000000006 32664.915000000005 988.00000000000011 53612.770000000011 -1.3914893617021276 488.93500000000006 1.4583011583011585 -0.82307692307692293 13106.780000000001 8.0833333333333339 14.325757575757578 0.44954090834563049 662.80000000000007 0.70333543716813851 1544.3200000000002 0.17780731812503162 13305.301250000002 5175.8900000000003 -3.0288461538461533 17507.210000000003 -3.1845238095238089 1699.1650000000002
decision_type=2 2 2 2 2 2 2 2 2 2 2 2 2 2 2 2 2 2 2 2 2 2 2 2 2 2 2 2 2 2
left_child=1 6 3 -2 14 22 15 8 16 12 -10 18 23 -14 -4 -1 -5 -9 -11 -7 -21 -16 -3 -8 25 28 -26 -28 -25 -30
right_child=2 5 4 7 -6 19 9 17 10 11 -12 -13 13 -15 21 -17 -18 -19 -20 20 -22 -23 -24 24 26 -27 27 -29 29 -31
leaf_value=-0.042335670185837775 0.00024681458015902047 -0.0088739133525244044 -0.0048423107216755551 0.0061333912196477845 0.043014395247492419 -0.010591663500769415 -0.032224435923757566 0.01534560262804714 0.002799166668194747 -0.038387841008108582 -0.019447977512834533 -0.029318727817153556 0.0020294453583511655 -0.024338265710827936 0.041447644105979377 -0.028753145253178722 0.014867859577742934 0.028211384707767712 -0.028196232693810622 -0.022384576385633816 -0.0045667575759556645 0.02402579580894976 -0.016995053394503797 -0.035503058946047709 -0.018407085828948767 -0.021646087588106391 -0.03715292339147859 -0.027849566121710176 -0.02433977753299231 -0.033037841523992285
leaf_weight=621 2513 273 30 510 1416 2602 1269 1986 179 1159 155 1280 51 865 70 174 868 152 279 72 1227 428 2715 421 160 1069 727 748 953 716
leaf_count=621 2513 273 30 510 1416 2602 1269 1986 179 1159 155 1280 51 865 70 174 868 152 279 72 1227 428 2715 421 160 1069 727 748 953 716
internal_value=-0.0108701 -0.0231336 0.014789 0.00768579 0.0380388 -0.0120974 -0.0303799 0.0125414 0.00789716 -0.0296434 -0.00752511 -0.0330707 -0.0283086 -0.0228702 0.0246953 -0.0393629 0.0116352 0.0162603 -0.0364105 -0.00891428 -0.00555435 0.0264746 -0.0162531 -0.0291303 -0.0283113 -0.0268874 -0.0310623 -0.032435 -0.0295683 -0.0280712
internal_weight=25688 17381 8307 6363 1944 6889 10492 3850 1712 9697 334 2718 6979 916 528 795 1378 2138 1438 3901 1299 498 2988 6063 4794 3159 1635 1475 2090 1669
internal_count=25688 17381 8307 6363 1944 6889 10492 3850 1712 9697 334 2718 6979 916 528 795 1378 2138 1438 3901 1299 498 2988 6063 4794 3159 1635 1475 2090 1669
is_linear=0
shrinkage=0.05


Tree=14
num_leaves=31
num_cat=0
split_feature=8 8 8 1 8 5 3 8 1 3 0 3 0 1 1 1 1 8 0 8 1 2 1 1 2 3 5 7 0 1
split_gain=3160.34 564.155 545.257 114.128 89.069 59.2352 54.671 34.2109 28.0863 26.6543 37.2637 23.9552 26.2271 29.0499 23.5824 21.3595 20.669 16.0805 14.8707 14.4964 12.6057 11.8266 11.6723 11.2606 10.8187 10.4725 10.0973 9.24129 9.08926 8.99469
threshold=0.51149613163343155 0.22401433691756273 0.96481178396072032 5.5000000000000009 0.661904761904762 13.224080267558529 5.2129629629629637 0.3647450110864745 -1.0000000180025095e-35 1.7489436619718313 50873.085000000006 -0.46474287828338878 13305.301250000002 19.500000000000004 44.500000000000007 11.500000000000002 15.500000000000002 0.64026143790849688 488.93500000000006 0.20508259681429872 10.500000000000002 15.522727272727273 10.500000000000002 15.500000000000002 11.795683453237412 1.4583011583011585 43.818815331010455 688.50000000000011 13106.780000000001 9.5000000000000018
decision_type=2 2 2 2 2 2 2 2 2 2 2 2 2 2 2 2 2 2 2 2 2 2 2 2 2 2 2 2 2 2
left_child=1 3 4 8 16 29 25 -3 -1 10 28 12 13 23 -12 -9 17 22 -13 -14 -11 -18 -2 -7 -10 -4 -22 -23 -6 -5
right_child=2 7 6 5 9 11 -8 15 24 20 14 18 19 -15 -16 -17 21 -19 -20 -21 26 27 -24 -25 -26 -27 -28 -29 -30 -31
leaf_value=0.028516871938782353 0.026911700474606323 -0.015755785922139606 -0.0046001952638228738 -0.02794989014373106 0.0060293640619070799 -0.029968393390828914 0.042941489507375807 0.0061009732734218433 -0.018194457364493401 0.037249984329237658 -0.0023182195299003058 0.0035730759708248842 -0.033866038878648828 -0.042226577490568164 -0.042804876914838468 -0.0095742932002615879 -0.039088799245655538 0.015315583138924142 -0.02451537029349387 -0.019346475559572935 0.014493733349769953 -0.0067309063143322538 0.00056511520168890076 -0.023555222678184509 0.001256808102236572 0.025818214432362575 0.029265132270813961 0.0024834508208380355 0.014439712016690901 -0.04354093297866269
leaf_weight=62 44 2988 30 102 510 1078 1416 231 145 68 293 49 4338 300 41 3670 24 280 1229 179 1947 813 943 1875 141 498 123 409 868 994
leaf_count=62 44 2988 30 102 510 1078 1416 231 145 68 293 49 4338 300 41 3670 24 280 1229 179 1947 813 943 1875 141 498 123 409 868 994
internal_value=-0.0107224 -0.0228467 0.0146457 -0.030146 0.00756515 -0.0311119 0.0378213 -0.0117298 -0.00199121 0.0123445 0.00769533 -0.0297821 -0.0308255 -0.0274024 -0.00728814 -0.00864607 0.000243038 0.00473984 -0.0234384 -0.0332907 0.0160673 -0.00432956 0.00173963 -0.0258964 -0.00860485 0.0240899 0.0153715 -0.00364689 0.011327 -0.0420899
internal_weight=25688 17381 8307 10492 6363 10144 1944 6889 348 3850 1712 9048 7770 3253 334 3901 2513 1267 1278 4517 2138 1246 987 2953 286 528 2070 1222 1378 1096
internal_count=25688 17381 8307 10492 6363 10144 1944 6889 348 3850 1712 9048 7770 3253 334 3901 2513 1267 1278 4517 2138 1246 987 2953 286 528 2070 1222 1378 1096
is_linear=0
shrinkage=0.05


Tree=15
num_leaves=31
num_cat=0
split_feature=8 8 8 3 1 8 5 3 1 1 1 1 1 7 8 3 1 8 1 8 5 1 5 4 3 1 3 1 7 8
split_gain=3172.46 579.402 493.24 101.065 100.114 80.8798 54.4642 23.7632 24.6693 23.2962 26.5512 22.0857 19.495 19.8849 18.5771 18.4931 18.0654 18.0028 16.2099 15.7562 14.52 13.2051 9.97452 10.0759 9.05432 8.38651 8.19398 7.14322 14.0645 7.14105
threshold=0.47056277056277063 0.83602150537634423 0.22401433691756273 3.8111285266457688 4.5000000000000009 0.661904761904762 13.224080267558529 -0.46474287828338878 19.500000000000004 44.500000000000007 50.000000000000007 -1.0000000180025095e-35 15.500000000000002 688.50000000000011 0.64026143790849688 -4.4108626198083059 9.5000000000000018 0.34646464646464653 10.500000000000002 0.98549107142857151 7.1357808857808864 10.500000000000002 16.049214226633584 1.8559498540132993 2.0736486486486494 33.500000000000007 2.0736486486486494 14.500000000000002 128.00000000000003 0.067873303167420809
decision_type=2 2 2 2 2 2 2 2 2 2 2 2 2 2 2 2 2 2 2 2 2 2 2 2 2 2 2 2 2 2
left_child=2 5 4 -3 11 12 16 8 15 18 -11 -1 14 22 21 -8 -6 -4 -7 -5 -13 -2 -14 -24 -23 -19 27 28 -20 -17
right_child=1 3 17 19 6 9 7 -9 -10 10 -12 20 13 -15 -16 29 -18 25 26 -21 -22 24 23 -25 -26 -27 -28 -29 -30 -31
leaf_value=0.026314088804968473 0.017555509682483317 0.017677820492265881 -0.01533886817581144 0.033521393967497634 -0.025191497444719463 0.034221839522942901 -0.018258498635834564 -0.023157298046402805 -0.040119956342883137 -0.039255318109025349 0.0058944945891370197 -0.019256119737188326 -0.02113443803319261 0.0051029586383693395 0.015044182558153577 -0.038262301023595888 -0.043599177972158926 -0.0092988382417351703 0.0018770946792830698 0.043471425383417445 0.0055703497517888799 -0.0025577929591168455 -0.015642455647483258 -0.0033433473409636865 0.0074233415175577388 -0.019990414530806938 0.014820369666422459 0.008618191066804181 0.033420767342405663 -0.029979115445894312
leaf_weight=58 114 690 2629 594 154 80 334 1253 623 47 106 131 121 427 297 271 991 3362 61 1205 107 967 211 790 297 194 1128 1815 84 6529
leaf_count=58 114 690 2629 594 154 80 334 1253 623 47 106 131 121 427 297 271 991 3362 61 1205 107 967 211 790 297 194 1128 1815 84 6529
internal_value=-0.0104399 0.0134129 -0.023393 0.0339464 -0.0300161 0.0056042 -0.0308516 -0.0295463 -0.0305783 0.0110806 -0.00797506 -0.00135239 -3.70066e-05 -0.00408012 0.00370197 -0.029745 -0.0411234 -0.0122016 0.0120009 0.0401861 -0.00809464 0.00125738 -0.00757493 -0.00593587 -0.000212542 -0.00988212 0.0114253 0.00947136 0.0201507 -0.0303092
internal_weight=25670 9034 16636 2489 10451 6545 10155 9010 7757 3321 153 296 3224 1549 1675 7134 1145 6185 3168 1799 238 1378 1122 1001 1264 3556 3088 1960 145 6800
internal_count=25670 9034 16636 2489 10451 6545 10155 9010 7757 3321 153 296 3224 1549 1675 7134 1145 6185 3168 1799 238 1378 1122 1001 1264 3556 3088 1960 145 6800
is_linear=0
shrinkage=0.05


Tree=16
num_leaves=31
num_cat=0
split_feature=5 2 5 2 1 5 2 5 2 5 5 1 6 0 1 5 5 5 1 0 2 1 2 2 4 5 5 5 2 1
split_gain=1894.94 680.637 431.005 259.333 161.975 115.741 112.118 73.0743 88.2923 57.2893 50.9943 45.6384 37.5831 36.3866 33.2941 35.6786 29.7731 22.7631 22.9776 32.3655 25.5375 22.3371 20.1448 19.9024 19.581 19.5786 19.0191 18.7272 29.2645 18.2286
threshold=18.63486140724947 15.014705882352944 14.325757575757578 13.437500000000002 11.500000000000002 33.727586206896554 16.622023809523814 18.971391972672933 21.267857142857146 11.305555555555559 22.951327433628325 19.500000000000004 25444.626105919011 13305.301250000002 1.0000000180025095e-35 12.306954436450841 16.965909090909097 20.134059668853489 15.500000000000002 54843.505000000012 20.404080338266393 33.500000000000007 20.330845771144279 32.527777777777786 4.2413049888155019 17.598611111111115 18.038152419117548 63.472222222222229 45.130952380952387 35.500000000000007
decision_type=2 2 2 2 2 2 2 2 2 2 2 2 2 2 2 2 2 2 2 2 2 2 2 2 2 2 2 2 2 2
left_child=2 -2 4 -4 14 7 25 -3 10 -6 12 16 29 -11 -1 -16 -8 -14 20 22 -19 -10 -20 -7 -12 -5 -13 28 -25 -9
right_child=1 5 3 6 9 23 11 8 21 13 24 26 17 -15 15 -17 -18 18 19 -21 -22 -23 -24 27 -26 -27 -28 -29 -30 -31
leaf_value=0.017043911884269441 0.041952472794496702 -0.013391053083006609 0.020452634944328973 -0.0089257110649851087 -0.044178019193909762 0.034097453405459721 -0.023670616174428279 0.0091638634219657466 -0.0072614317552904739 -0.025950871809190756 0.038524578760067624 -0.037311606758378212 -0.0052570986458830536 -0.033445150428727283 -0.016304728010125485 0.020784075694737603 -0.013603771213972196 0.011240280487209745 -0.0041614867968867162 -0.014382567404126618 -0.01701234093105251 -0.024113328482608422 0.010591399960734747 0.015277061342454419 0.01232011037007455 0.0072510246574731159 -0.018082844115355434 0.028766139148695708 -0.012135540592110056 -0.012506397598989161
leaf_weight=121 1163 974 548 2526 822 150 1405 1997 1179 2871 132 528 1412 3716 524 74 1539 878 453 355 88 236 473 580 155 202 170 180 117 102
leaf_count=121 1163 974 548 2526 822 150 1405 1997 1179 2871 132 528 1412 3716 524 74 1539 878 453 355 88 236 473 580 155 202 170 180 117 102
internal_value=-0.0103105 0.0058562 -0.0217258 -0.012553 -0.0295331 0.00141904 -0.0153924 -0.000510765 0.00117092 -0.0317319 0.00380266 -0.0211335 0.00277739 -0.0301787 -0.0068753 -0.0117151 -0.0184081 -0.000282147 0.00284408 -0.00154663 0.00866654 -0.0100721 0.00337428 0.0172671 0.0243723 -0.00772787 -0.0326284 0.0143885 0.0106755 0.00811081
internal_weight=25670 10624 15046 6918 8128 9461 6370 8434 7460 7409 6045 3642 5758 6587 719 598 2944 3659 2247 1281 966 1415 926 1027 287 2728 698 877 697 2099
internal_count=25670 10624 15046 6918 8128 9461 6370 8434 7460 7409 6045 3642 5758 6587 719 598 2944 3659 2247 1281 966 1415 926 1027 287 2728 698 877 697 2099
is_linear=0
shrinkage=0.05


Tree=17
num_leaves=31
num_cat=0
split_feature=5 2 5 2 1 5 2 5 2 5 5 1 0 6 1 5 5 1 5 1 0 2 2 4 5 2 5 5 2 1
split_gain=1871.13 677.347 442.006 251.683 161.361 114.17 109.306 69.0274 84.9201 58.073 50.2813 45.8064 36.5665 36.2125 31.6973 34.9404 29.6436 21.9048 21.6138 22.2293 30.6665 23.9431 19.9254 19.5667 19.5405 18.9759 18.5519 18.5395 28.7116 17.7357
threshold=18.63486140724947 15.014705882352944 14.325757575757578 13.437500000000002 11.500000000000002 33.727586206896554 16.622023809523814 18.971391972672933 21.267857142857146 11.305555555555559 22.951327433628325 19.500000000000004 13305.301250000002 25444.626105919011 1.0000000180025095e-35 12.708333333333334 16.965909090909097 33.500000000000007 20.134059668853489 15.500000000000002 54843.505000000012 20.404080338266393 32.527777777777786 4.2413049888155019 18.038152419117548 20.330845771144279 17.598611111111115 63.472222222222229 45.130952380952387 35.500000000000007
decision_type=2 2 2 2 2 2 2 2 2 2 2 2 2 2 2 2 2 2 2 2 2 2 2 2 2 2 2 2 2 2
left_child=2 -2 4 -4 14 7 26 -3 10 -6 13 16 -11 29 -1 -16 -8 -10 -15 21 25 -20 -7 -12 -13 -21 -5 28 -24 -9
right_child=1 5 3 6 9 22 11 8 17 12 23 24 -14 18 15 -17 -18 -19 19 20 -22 -23 27 -25 -26 -27 -28 -29 -30 -31
leaf_value=0.016514485862013723 0.041884418234216278 -0.012986160056317489 0.020271621647216107 -0.0086389669266666545 -0.044164583057962781 0.03402925848960877 -0.023230056337800106 0.0090037423707628756 -0.0070760468172676276 -0.025831557447768723 0.03832028169523586 -0.036972410320022117 -0.033344346959348389 -0.0051212027363898632 -0.015730585302278565 0.023364674426557031 -0.013185128522329571 -0.023764059927030387 0.010991789774512047 -0.0040696592672540919 -0.014040313995587576 -0.016364712149582124 0.015172455015126617 0.012125373242362854 -0.017481855289901007 0.01024881523362426 0.0071079024097577929 0.028614317828064992 -0.01197995677845091 -0.012371524671713513
leaf_weight=121 1163 974 548 2526 822 150 1405 1997 1179 2871 132 528 3716 1412 534 64 1539 236 878 453 355 88 580 155 170 473 202 180 117 102
leaf_count=121 1163 974 548 2526 822 150 1405 1997 1179 2871 132 528 3716 1412 534 64 1539 236 878 453 355 88 580 155 170 473 202 180 117 102
internal_value=-0.0101893 0.00587548 -0.0215327 -0.0122435 -0.029439 0.00144905 -0.0150408 -0.000467611 0.00116685 -0.0316336 0.00374784 -0.0207094 -0.0300698 0.00272976 -0.00682412 -0.0115465 -0.017979 -0.00985935 -0.000273468 0.00277282 -0.00154581 0.00849969 0.0171892 0.0241732 -0.0322254 0.00324421 -0.00747296 0.0143089 0.0106146 0.00796502
internal_weight=25670 10624 15046 6918 8128 9461 6370 8434 7460 7409 6045 3642 6587 5758 719 598 2944 1415 3659 2247 1281 966 1027 287 698 926 2728 877 697 2099
internal_count=25670 10624 15046 6918 8128 9461 6370 8434 7460 7409 6045 3642 6587 5758 719 598 2944 1415 3659 2247 1281 966 1027 287 698 926 2728 877 697 2099
is_linear=0
shrinkage=0.05


Tree=18
num_leaves=31
num_cat=0
split_feature=8 8 8 3 1 8 2 3 8 1 1 1 1 6 8 8 1 8 1 2 1 2 1 1 3 8 3 8 1 7
split_gain=3019.54 568.618 517.132 106.174 96.0383 72.4902 51.0625 33.8274 29.0502 22.8592 26.1244 21.7909 17.8549 18.2024 16.8466 16.671 16.262 15.9418 12.7756 12.547 12.426 24.8827 10.1337 9.1557 8.66878 8.61316 8.28786 7.4688 7.06444 13.2067
threshold=0.47056277056277063 0.83602150537634423 0.22401433691756273 3.8111285266457688 5.5000000000000009 0.661904761904762 14.645833333333334 -0.46474287828338878 0.057189542483660101 44.500000000000007 50.000000000000007 -1.0000000180025095e-35 15.500000000000002 44343.875645773987 0.98549107142857151 0.64026143790849688 10.500000000000002 0.41240409207161127 10.500000000000002 11.795683453237412 19.500000000000004 20.755075779239352 10.500000000000002 2.5000000000000004 2.0736486486486494 0.62736146095717893 2.0736486486486494 0.28197530864197534 14.500000000000002 128.00000000000003
decision_type=2 2 2 2 2 2 2 2 2 2 2 2 2 2 2 2 2 2 2 2 2 2 2 2 2 2 2 2 2 2
left_child=2 5 4 -3 11 12 22 8 -8 16 -11 -1 15 25 -5 18 -7 27 -2 -13 21 -10 -6 -21 28 -14 -20 -4 29 -18
right_child=1 3 17 14 6 9 7 -9 20 10 -12 19 13 -15 -16 -17 24 -19 26 23 -22 -23 -24 -25 -26 -27 -28 -29 -30 -31
leaf_value=0.024404362743270808 0.017416695750465519 0.016866476270842597 -0.017537905667532428 0.033045181463964866 -0.028752522233153596 0.033816799721680578 -0.040586052646451612 -0.021657715450295267 -0.029736875851662643 -0.039255318109025349 0.0055301099416815228 -0.019118960645814607 -0.0041358187658867484 -0.010292238180362991 0.043333753368419242 0.014446174697668263 0.0018866757228665175 -0.0074967324900144508 -0.0023037914527173713 0.021226681476192819 -0.037554028019341372 -0.015459781112149358 -0.044517165724235253 -0.0068532912813602607 0.014475729896402952 0.0055455342181063147 0.0072455477154490721 -0.012003642517791666 0.0081254775825064986 0.032453211414672077
leaf_weight=58 114 690 738 594 119 80 656 1249 6590 47 106 151 456 630 1205 297 61 1942 967 42 461 320 711 94 1128 463 297 3505 1815 84
leaf_count=58 114 690 738 594 119 80 656 1249 6590 47 106 151 456 630 1205 297 61 1942 967 42 461 320 711 94 1128 463 297 3505 1815 84
internal_value=-0.0100712 0.0131997 -0.0227081 0.0335411 -0.0294898 0.00546398 -0.0303754 -0.0293123 -0.0305033 0.0106486 -0.00822751 -0.0035484 0.000123361 -0.00374594 0.0399366 0.0037016 0.0115602 -0.0112489 0.00138582 -0.00919739 -0.029606 -0.0290757 -0.0422569 0.00181847 0.0109837 0.000741729 -5.99989e-05 -0.0129662 0.00897393 0.0195942
internal_weight=25670 9034 16636 2489 10451 6545 10106 9276 8027 3321 153 345 3224 1549 1799 1675 3168 6185 1378 287 7371 6910 830 136 3088 919 1264 4243 1960 145
internal_count=25670 9034 16636 2489 10451 6545 10106 9276 8027 3321 153 345 3224 1549 1799 1675 3168 6185 1378 287 7371 6910 830 136 3088 919 1264 4243 1960 145
is_linear=0
shrinkage=0.05


Tree=19
num_leaves=31
num_cat=0
split_feature=3 3 3 1 3 4 4 4 3 4 2 0 0 4 1 1 3 4 1 1 1 1 1 6 4 4 1 4 1 2
split_gain=2686.32 689.682 281.592 102.447 92.3459 74.4595 69.1574 56.1309 52.6421 46.5783 38.3178 32.6342 25.8662 26.5202 25.1515 23.63 23.2552 32.4711 19.1946 17.3615 16.2687 16.1837 14.9904 15.6814 14.9105 27.8718 13.7592 13.273 13.1406 12.9493
threshold=0.78019323671497598 3.6428571428571432 -1.8055555555555551 4.5000000000000009 8.4801587301587329 4.9026479329893808 5.7155322846966401 4.9991170070154496 1.7135258358662615 13.036531350953714 18.648717948717955 13305.301250000002 50873.085000000006 3.2283453946815661 45.500000000000007 10.500000000000002 -0.40192307692307688 8.3326715597131145 10.500000000000002 -1.0000000180025095e-35 63.500000000000007 11.500000000000002 15.500000000000002 24732.100711586903 13.412547945773937 13.053428949987815 18.500000000000004 8.1149629938252428 15.500000000000002 19.73774509803922
decision_type=2 2 2 2 2 2 2 2 2 2 2 2 2 2 2 2 2 2 2 2 2 2 2 2 2 2 2 2 2 2
left_child=2 7 3 19 5 -3 15 8 12 11 21 26 13 -2 -14 -5 17 -4 -18 -1 -11 -9 27 -24 25 -7 28 -12 29 -8
right_child=1 4 16 6 -6 24 9 10 -10 20 22 -13 14 -15 -16 -17 18 -19 -20 -21 -22 -23 23 -25 -26 -27 -28 -29 -30 -31
leaf_value=0.023004914765230946 -0.002370523309267643 0.039542352006409015 -0.02473276345520007 -0.023818131400209466 0.0416215087645617 0.015655520068168408 -0.030885566034663393 0.0080929442015553708 0.014619727973261982 -0.0129429653933267 0.0023225797091335431 -0.032540795460405163 -0.0036291768551413636 0.0095321127932839114 -0.041700813814025857 -0.043391521687313257 0.017078385691751134 -0.00957146586937325 -0.012703651711878643 -0.0067939853674270278 -0.037386616561319919 -0.0073656599607921994 0.0054936405259128941 -0.0068360459713112586 0.0039962100924519949 0.035487841550156336 -0.037463531727011584 0.017022003353611013 -0.022249427058952987 -0.0085964371476854595
leaf_weight=61 773 497 1039 178 995 1029 943 181 1110 587 318 4099 762 1186 46 1153 55 535 3312 246 77 2621 536 497 189 214 231 297 1833 70
leaf_count=61 773 497 1039 178 995 1029 943 181 1110 587 318 4099 762 1186 46 1153 55 535 3312 246 77 2621 536 497 189 214 231 297 1833 70
internal_value=-0.00995223 0.00835861 -0.02424 -0.029285 0.0292494 0.0228677 -0.0302361 0.00102288 0.00542092 -0.0284471 -0.00280885 -0.0296194 0.00173076 0.00483546 -0.00579662 -0.0407739 -0.0145625 -0.0195795 -0.0122172 -0.000873031 -0.0157775 -0.00636708 0.00324101 -0.000438455 0.0170805 0.0190699 -0.0257277 0.00942133 -0.0247751 -0.0293453
internal_weight=25670 11251 14419 9478 2924 1929 9171 8327 3877 7840 4450 7176 2767 1959 808 1331 4941 1574 3367 307 664 2802 1648 1033 1432 1243 3077 615 2846 1013
internal_count=25670 11251 14419 9478 2924 1929 9171 8327 3877 7840 4450 7176 2767 1959 808 1331 4941 1574 3367 307 664 2802 1648 1033 1432 1243 3077 615 2846 1013
is_linear=0
shrinkage=0.05


Tree=20
num_leaves=31
num_cat=0
split_feature=8 8 8 8 1 3 5 3 3 1 2 1 8 1 1 1 8 1 1 3 3 1 4 1 2 3 8 2 1 2
split_gain=2910.95 548.142 514.203 92.8518 82.0677 68.3049 61.3095 39.2915 28.9714 27.0925 29.5397 21.8727 20.9854 19.7811 17.1269 15.5081 20.6206 13.9299 25.1047 14.5105 12.1825 10.4357 9.64012 8.26428 8.22372 7.78158 7.34947 7.28031 12.6084 7.01191
threshold=0.47056277056277063 0.96481178396072032 0.23290322580645162 0.71637709137709149 4.5000000000000009 5.2129629629629637 13.224080267558529 -0.46474287828338878 2.0736486486486494 19.500000000000004 18.826923076923077 9.5000000000000018 0.34113989764635777 -1.0000000180025095e-35 14.500000000000002 10.500000000000002 0.62279120086548878 34.500000000000007 57.500000000000007 1.417236290197297 1.9941176470588238 10.500000000000002 1.6650803527556437 39.500000000000007 11.612937062937066 2.8782679738562096 0.097619047619047619 17.771241830065364 15.500000000000002 37.403475312566236
decision_type=2 2 2 2 2 2 2 2 2 2 2 2 2 2 2 2 2 2 2 2 2 2 2 2 2 2 2 2 2 2
left_child=2 3 4 15 13 20 11 9 14 10 26 -6 -4 -1 -5 -2 -17 -16 19 -19 -3 -10 -22 25 -15 27 -8 -18 -29 -23
right_child=1 5 12 8 6 -7 7 -9 21 -11 -12 -13 -14 24 17 16 23 18 -20 -21 22 29 -24 -25 -26 -27 -28 28 -30 -31
leaf_value=0.02204093297974008 0.017755324832660003 0.0069501930357594235 -0.015450721204534133 0.027103590895421803 -0.023234498539278586 0.04254832171091965 -0.038390758041308017 -0.020303589366346908 0.036432372882134384 -0.039904274102330793 -0.016431119437940522 -0.043418979391708717 -0.0089910703064974822 -0.021380507739934516 0.0086233560100342516 -0.0042586778460274406 -0.0010453072736574408 -0.042023196243322819 0.014924427810782457 0.0026221524458378553 0.037078272947861306 0.015826636190677798 0.020429662607379797 -0.0076090865637151858 -0.0024191469183727486 0.014742707050207891 -0.02945948915275666 0.010999045485305697 0.0012912526599478064 0.028274849988520145
leaf_weight=61 137 114 1765 116 155 1385 239 1263 72 613 442 1001 4371 94 1596 1361 621 52 68 28 124 1290 291 156 146 165 6357 589 774 124
leaf_count=61 137 114 1765 116 155 1385 239 1263 72 613 442 1001 4371 94 1596 1361 621 52 68 28 124 1290 291 156 146 165 6357 589 774 124
internal_value=-0.00982161 0.0129461 -0.022322 0.00658361 -0.0291099 0.0367108 -0.0298789 -0.0284739 0.0126586 -0.0298227 -0.0289446 -0.0407126 -0.0108492 -0.00338361 0.00849998 0.00123867 0.00062144 0.00726259 -0.00741165 -0.0263973 0.0214273 0.0178638 0.0254042 0.00350293 -0.00984568 0.00430958 -0.0297831 0.0034419 0.00548633 0.0169183
internal_weight=25570 9063 16507 7149 10371 1914 10070 8914 3346 7651 7038 1156 6136 301 1860 3803 3666 1744 148 80 529 1486 415 2305 240 2149 6596 1984 1363 1414
internal_count=25570 9063 16507 7149 10371 1914 10070 8914 3346 7651 7038 1156 6136 301 1860 3803 3666 1744 148 80 529 1486 415 2305 240 2149 6596 1984 1363 1414
is_linear=0
shrinkage=0.05


Tree=21
num_leaves=31
num_cat=0
split_feature=3 3 3 3 1 4 4 3 5 4 4 0 0 5 1 1 1 1 4 1 4 4 1 3 5 3 1 4 0 5
split_gain=2565.67 683.659 287.3 89.6358 87.2308 73.3266 69.8959 59.4572 51.8715 46.7241 36.8265 33.7399 26.4135 26.2685 25.6852 25.2277 22.0646 18.4536 16.0032 15.9978 15.3889 28.5929 14.6937 14.3155 12.8718 12.7582 12.347 12.329 12.0244 11.4109
threshold=0.62526123301985381 3.6428571428571432 -1.8055555555555551 8.4801587301587329 4.5000000000000009 4.9026479329893808 5.7155322846966401 1.9197315436241611 20.134059668853489 13.036531350953714 4.9991170070154496 13711.327500000001 48021.430000000008 18.930851432132393 10.500000000000002 15.500000000000002 10.500000000000002 -1.0000000180025095e-35 14.933766495535535 19.500000000000004 13.965882681289143 13.053428949987815 63.500000000000007 7.3739130434782618 15.541250000000002 -0.29678571428571415 15.500000000000002 10.246185317688093 12169.870000000001 15.405357142857145
decision_type=2 2 2 2 2 2 2 2 2 2 2 2 2 2 2 2 2 2 2 2 2 2 2 2 2 2 2 2 2 2
left_child=2 7 4 5 17 -3 14 8 -2 11 -9 19 28 16 -6 27 -4 -1 -5 26 21 -7 24 -22 -11 -18 -8 -14 -10 -13
right_child=1 3 13 18 6 20 9 10 12 22 -12 29 15 -15 -16 -17 25 -19 -20 -21 23 -23 -24 -25 -26 -27 -28 -29 -30 -31
leaf_value=0.021239071528589917 -0.0056259069446759069 0.039029633426558109 0.010464977481003319 0.044184023697113356 -0.022848806399746804 0.015361905388715791 -0.02890089379469395 0.014886471394917923 0.0014432845100398281 -0.033650215445221336 0.0018491893731439968 -0.033396124493224287 0.00052401974213673317 -0.0096593977217008676 -0.04331384017367898 -0.011422381952551824 -0.022196542174898855 -0.0091021558802042695 0.028220639111740248 -0.038511095206309028 -0.0028470439285789646 0.035694244418006678 -0.037146735460393959 0.031312831608872667 -0.010746917359119999 -0.014982255321371622 -0.022017609015820554 0.022226417375789898 0.0095669686826576877 -0.025342248553487941
leaf_weight=63 3655 496 70 789 177 1025 1003 1002 720 69 1179 3500 233 2060 1146 482 1052 245 196 217 159 208 72 38 553 1468 1859 91 1240 503
leaf_count=63 3655 496 70 789 177 1025 1003 1002 720 69 1179 3500 233 2060 1146 482 1052 245 196 217 159 208 72 38 553 1468 1859 91 1240 503
internal_value=-0.00970665 0.00779413 -0.0240402 0.0287388 -0.0290658 0.0224643 -0.0299517 0.000706239 -0.00171646 -0.0281441 0.00783881 -0.0293574 0.0034495 -0.0138732 -0.0405759 -0.00416984 -0.0172248 -0.002896 0.0410076 -0.0254223 0.0167186 0.0187919 -0.0157629 0.00374217 -0.0132876 -0.0179939 -0.0244299 0.00661945 0.00658276 -0.0323841
internal_weight=25570 11513 14057 2911 9407 1926 9099 8602 6421 7776 2181 7082 2766 4650 1323 806 2590 308 985 3079 1430 1233 694 197 622 2520 2862 324 1960 4003
internal_count=25570 11513 14057 2911 9407 1926 9099 8602 6421 7776 2181 7082 2766 4650 1323 806 2590 308 985 3079 1430 1233 694 197 622 2520 2862 324 1960 4003
is_linear=0
shrinkage=0.05


Tree=22
num_leaves=31
num_cat=0
split_feature=8 8 8 8 1 3 5 3 3 1 2 1 8 1 1 8 1 1 3 1 3 1 1 3 2 1 2 8 2 1
split_gain=2808.79 542.218 527.192 87.1098 80.0962 72.82 72.3982 45.1342 29.1249 27.2391 34.0065 19.7902 19.2313 16.7025 15.0433 19.6985 13.7228 24.5878 14.3471 12.3273 11.577 10.3949 8.01553 7.61615 7.21308 7.16574 7.12913 6.99339 6.79458 11.8963
threshold=0.47056277056277063 0.96481178396072032 0.23290322580645162 0.71637709137709149 5.5000000000000009 5.2129629629629637 13.224080267558529 -0.53589743589743577 2.0736486486486494 19.500000000000004 18.826923076923077 -1.0000000180025095e-35 0.34113989764635777 14.500000000000002 10.500000000000002 0.62279120086548878 34.500000000000007 57.500000000000007 1.417236290197297 9.5000000000000018 1.9941176470588238 10.500000000000002 39.500000000000007 2.8782679738562096 37.403475312566236 17.500000000000004 16.037037037037042 0.067873303167420809 17.771241830065364 15.500000000000002
decision_type=2 2 2 2 2 2 2 2 2 2 2 2 2 2 2 2 2 2 2 2 2 2 2 2 2 2 2 2 2 2
left_child=2 3 4 14 11 20 19 9 13 10 27 -1 -4 -5 -2 -16 -15 18 -18 -6 -3 -10 23 28 -23 -12 -22 -8 -17 -30
right_child=1 5 12 8 6 -7 7 -9 21 -11 25 -13 -14 16 15 22 17 -19 -20 -21 26 24 -24 -25 -26 -27 -28 -29 29 -31
leaf_value=0.020586440993137049 0.017528492386323691 0.006508947052715118 -0.014665679551302206 0.026524450525577215 -0.025261992954004272 0.042429579339302838 -0.038210191782069421 -0.019463499277554815 0.036073680884308283 -0.039662937249598747 -0.013430780511176382 -0.010735990576881314 -0.0084819015772602865 0.0082814363927147441 -0.0041164591777070663 -0.00092928239283858287 -0.041960780408519971 0.014471023808479967 0.0024324588544134586 -0.043348387300551357 0.034040965016623188 0.015490506952123125 -0.0074738662116802662 0.014585688538623579 0.028116029957609791 -0.037651835336829677 0.019997897723042377 -0.029259193111519789 0.010735472636783563 0.0013058227177069207
leaf_weight=61 137 114 1765 116 104 1385 226 1299 72 612 409 291 4371 1596 1361 621 52 68 28 1001 133 1290 156 165 124 33 282 6335 589 774
leaf_count=61 137 114 1765 116 104 1385 226 1299 72 612 409 291 4371 1596 1361 621 52 68 28 1001 133 1290 156 165 124 33 282 6335 589 774
internal_value=-0.00959839 0.0127663 -0.0218775 0.00643825 -0.0287506 0.0364022 -0.0295742 -0.0280777 0.0123224 -0.0295472 -0.0286632 -0.00530796 -0.0102606 0.00815279 0.00126122 0.000653309 0.00693082 -0.00763393 -0.0264231 -0.0416461 0.0206217 0.0175414 0.00346964 0.00426406 0.0165977 -0.0152391 0.0244984 -0.0295675 0.00340565 0.0053807
internal_weight=25570 9063 16507 7149 10371 1914 10019 8914 3346 7615 7003 352 6136 1860 3803 3666 1744 148 80 1105 529 1486 2305 2149 1414 442 415 6561 1984 1363
internal_count=25570 9063 16507 7149 10371 1914 10019 8914 3346 7615 7003 352 6136 1860 3803 3666 1744 148 80 1105 529 1486 2305 2149 1414 442 415 6561 1984 1363
is_linear=0
shrinkage=0.05


Tree=23
num_leaves=31
num_cat=0
split_feature=8 8 8 8 1 3 5 3 3 0 1 0 8 1 1 8 1 0 5 1 1 3 1 1 0 2 1 7 8 3
split_gain=2753.04 539.734 534.889 84.1172 79.1658 75.4932 73.7817 48.4308 35.2218 28.4183 31.3815 24.6304 24.1209 24.0424 18.6814 18.2871 17.0981 16.6216 16.316 12.8478 12.5157 11.4948 11.1454 10.9398 9.97629 9.19404 8.01547 7.99386 7.57383 8.52174
threshold=0.47056277056277063 0.96481178396072032 0.23290322580645162 0.661904761904762 5.5000000000000009 5.2129629629629637 13.224080267558529 -0.53589743589743577 2.0736486486486494 13711.327500000001 19.500000000000004 50873.085000000006 0.18880560334234456 44.500000000000007 -1.0000000180025095e-35 0.34113989764635777 16.500000000000004 1462.8050000000001 16.475000000000005 9.5000000000000018 15.500000000000002 2.8782679738562096 10.500000000000002 10.500000000000002 6426.880000000001 18.738636363636367 14.500000000000002 988.00000000000011 0.79217273954116074 4.6043478260869568
decision_type=2 2 2 2 2 2 2 2 2 2 2 2 2 2 2 2 2 2 2 2 2 2 2 2 2 2 2 2 2 2
left_child=2 3 4 16 14 21 19 9 11 10 20 24 -11 27 -1 -4 23 -9 -18 -6 25 -3 -10 -2 26 -8 -5 -13 -24 -30
right_child=1 5 15 8 6 -7 7 17 22 12 -12 13 -14 -15 -16 -17 18 -19 -20 -21 -22 -23 28 -25 -26 -27 -28 -29 29 -31
leaf_value=0.019894601355810636 0.017182692451894924 0.0122901545060791 -0.014241081242351964 0.025931537347949216 -0.02484905650266088 0.042370048925576442 -0.030185572243245563 -0.0028103084841244659 0.035948879179889211 -0.033135236738912936 -0.041047687559424867 0.0053065364434000768 -0.019448783259306636 -0.038030147771148576 -0.010537658938401959 -0.0082110083238180163 -0.023411357402801515 -0.020936245388812617 -0.0029538072304633976 -0.043313335098808151 -0.021842685638361829 0.027063382416963579 0.013323287858267528 0.001815481198392564 0.011808868038389887 -0.014457359743639105 0.0013527924790801879 -0.011098275184279907 0.015689898916425998 0.028120895021491583
leaf_weight=61 122 247 1765 36 104 1385 949 142 73 4013 308 248 350 46 291 4371 112 1157 751 1001 1892 282 998 2284 1370 103 422 106 356 225
leaf_count=61 122 247 1765 36 104 1385 949 142 73 4013 308 248 350 46 291 4371 112 1157 751 1001 1892 282 998 2284 1370 103 422 106 356 225
internal_value=-0.00949026 0.0126513 -0.0216469 0.0063378 -0.02857 0.0362331 -0.0293888 -0.0278781 0.0113161 -0.0294003 -0.0258623 0.00721399 -0.0320373 -0.00402446 -0.00526389 -0.00994554 0.00042902 -0.0189548 -0.00560878 -0.0415755 -0.0242736 0.0201655 0.0168485 0.0025947 0.00967317 -0.0286456 0.00328475 0.000394361 0.0159655 0.020504
internal_weight=25570 9063 16507 7149 10371 1914 10019 8914 3880 7615 3252 2228 4363 400 352 6136 3269 1299 863 1105 2944 529 1652 2406 1828 1052 458 354 1579 581
internal_count=25570 9063 16507 7149 10371 1914 10019 8914 3880 7615 3252 2228 4363 400 352 6136 3269 1299 863 1105 2944 529 1652 2406 1828 1052 458 354 1579 581
is_linear=0
shrinkage=0.05


Tree=24
num_leaves=31
num_cat=0
split_feature=8 8 8 8 1 2 0 1 8 1 0 7 1 1 1 8 1 2 8 1 6 8 2 1 0 4 0 0 1 4
split_gain=2699.43 575.715 487.314 101.661 82.3573 49.1794 42.3412 40.6236 31.4311 27.1635 20.6919 33.6643 17.8554 16.1508 15.0998 17.7207 14.381 11.9089 11.2927 9.36497 8.64083 8.33709 18.0105 14.5977 8.29711 8.0744 7.33549 7.32966 7.15746 6.88747
threshold=0.44954090834563049 0.96481178396072032 0.20508259681429872 0.661904761904762 5.5000000000000009 13.825000000000001 13305.301250000002 12.500000000000002 0.34113989764635777 20.500000000000004 72317.500000000015 988.00000000000011 -1.0000000180025095e-35 12.500000000000002 10.500000000000002 0.62279120086548878 10.500000000000002 24.542419966487348 0.79217273954116074 17.500000000000004 37515.129497872353 0.047727272727272708 16.660652920962203 15.500000000000002 401.3250000000001 1.3348112353432888 6579.3250000000007 2880.9300000000007 19.500000000000004 9.8148022078244228
decision_type=2 2 2 2 2 2 2 2 2 2 2 2 2 2 2 2 2 2 2 2 2 2 2 2 2 2 2 2 2 2
left_child=2 3 4 14 12 16 9 -3 20 21 13 -12 -1 -5 -2 28 -6 -15 -19 -13 27 -7 23 -23 -24 -8 -20 -4 -16 -9
right_child=1 7 8 10 5 6 25 29 -10 -11 11 19 -14 17 15 -17 -18 18 26 -21 -22 22 24 -25 -26 -27 -28 -29 -30 -31
leaf_value=0.019226012342288847 0.016964387734893893 0.043236229888796197 -0.010222457565707291 0.022219666249410269 -0.0252850323267605 -0.034361963490681616 -0.024629229554083462 0.0264291310408474 -0.008409481949986905 -0.039472478707576149 0.010090789467731112 -0.012983065588693872 -0.01053476646863695 0.0095374946869081698 -0.0027055661657940009 0.002672662987261135 -0.044344585035783306 0.012675124480509632 0.0026242641387162389 -0.044780288904141159 -0.012324652407704632 -0.029695530506105374 0.0070288573846567504 -0.0219457990997005 -0.016028902336353363 -0.03258302055532377 0.030613714202561162 -0.01978992998612613 -0.010292465965717267 0.036847430200887717
leaf_weight=61 122 973 241 361 115 170 344 739 3810 292 201 57 290 2571 1532 1786 710 448 27 39 1138 915 43 1809 421 4405 176 1182 390 202
leaf_count=61 122 973 241 361 115 170 344 739 3810 292 201 57 290 2571 1532 1786 710 448 27 39 1138 915 43 1809 421 4405 176 1182 390 202
internal_value=-0.00938336 0.0115283 -0.0220043 0.00543519 -0.0291342 -0.0300388 -0.0288946 0.0360727 -0.0112888 -0.0248451 0.0111395 -0.00154282 -0.00536267 0.0121908 -0.000343592 -0.000913056 -0.0416878 0.0110671 0.017108 -0.0259007 -0.0155723 -0.0235732 -0.0229979 -0.024549 -0.0138921 -0.0320069 0.026891 -0.0181696 -0.00424505 0.0286656
internal_weight=25570 9624 15946 7710 9575 9224 8399 1914 6371 3650 3880 297 351 3583 3830 3708 825 3222 651 96 2561 3358 3188 2724 464 4749 203 1423 1922 941
internal_count=25570 9624 15946 7710 9575 9224 8399 1914 6371 3650 3880 297 351 3583 3830 3708 825 3222 651 96 2561 3358 3188 2724 464 4749 203 1423 1922 941
is_linear=0
shrinkage=0.05


Tree=25
num_leaves=31
num_cat=0
split_feature=8 8 8 3 8 3 8 0 7 0 8 8 0 0 3 3 0 8 0 0 2 0 6 0 0 8 0 3 6 0
split_gain=2623.14 709.041 339.342 132.777 111.753 49.6842 30.6106 19.8013 26.2583 19.734 17.1021 16.9768 14.3423 12.6637 12.1364 11.5615 10.9028 9.57802 8.96705 8.65411 27.8569 13.2563 16.4939 12.1347 9.39396 10.5369 8.65013 7.77122 6.02243 5.53599
threshold=0.40589240939138371 0.83602150537634423 0.20508259681429872 5.2129629629629637 0.661904761904762 -0.67295597484276715 0.057189542483660101 44140.056250000001 988.00000000000011 32149.775000000005 0.28197530864197534 0.62279120086548878 53612.770000000011 69799.575000000012 3.274436090225564 3.8111285266457688 526.3537500000001 0.96481178396072032 72317.500000000015 4372.1350000000011 15.851648351648356 12669.570000000002 16105.773577075101 1797.5350000000001 17507.210000000003 0.1958562271062271 6426.880000000001 -2.8374999999999995 37515.129497872353 1898.3950000000002
decision_type=2 2 2 2 2 2 2 2 2 2 2 2 2 2 2 2 2 2 2 2 2 2 2 2 2 2 2 2 2 2
left_child=2 4 5 15 11 6 -1 14 -9 19 28 -2 27 -14 26 -3 -7 -5 -10 20 -8 -21 -23 -22 25 -24 -6 -11 -4 -25
right_child=1 3 10 17 7 16 9 8 18 12 -12 -13 13 -15 -16 -17 -18 -19 -20 21 23 22 24 29 -26 -27 -28 -29 -30 -31
leaf_value=-0.03987035144552855 -0.0041194130259597853 0.014314521766678133 -0.018795277325030627 0.029355317620646876 0.0033620127525665804 0.0038126592386941438 -0.038405833253983945 0.0072715890559586971 -0.0015169299577200224 -0.02483847414670411 -0.01022172787381658 0.0017828441462077302 -0.024789004246605205 -0.036887703350004859 0.01653470507780018 0.027325483699639636 -0.018239139175775708 0.042609291004254979 -0.025895619820407098 -0.022030468960022299 -0.023293985043036959 -0.012644765596207861 -0.034186686711817564 -0.040708960022996454 -0.026089086635468408 -0.0066114850342273712 0.011221062098918174 -0.03778633657450739 -0.012040495026755978 -0.02948387423611773
leaf_weight=700 3744 708 1051 151 476 61 671 510 63 129 3114 1806 705 312 803 225 691 1401 94 1378 1132 154 919 136 931 36 1324 1140 481 571
leaf_count=700 3744 708 1051 151 476 61 671 510 63 129 3114 1806 705 312 803 225 691 1401 94 1378 1132 154 919 136 931 36 1324 1140 481 571
internal_value=-0.00923453 0.00876789 -0.0234546 0.0323586 0.0021213 -0.0287923 -0.0298335 0.00945356 0.00176725 -0.0289781 -0.0123495 -0.00219879 -0.0329247 -0.0285007 0.0114231 0.0174522 -0.0164504 0.0413198 -0.0161131 -0.0274562 -0.0296856 -0.0258191 -0.0283783 -0.0265038 -0.0296631 -0.0331472 0.00914278 -0.0364701 -0.0166745 -0.0316432
internal_weight=25617 11305 14312 2485 8820 9666 8914 3270 667 8214 4646 5550 2286 1017 2603 933 752 1552 157 5928 2510 3418 2040 1839 1886 955 1800 1269 1532 707
internal_count=25617 11305 14312 2485 8820 9666 8914 3270 667 8214 4646 5550 2286 1017 2603 933 752 1552 157 5928 2510 3418 2040 1839 1886 955 1800 1269 1532 707
is_linear=0
shrinkage=0.05


Tree=26
num_leaves=31
num_cat=0
split_feature=8 8 8 8 1 2 5 1 5 1 6 1 5 1 1 1 8 8 1 5 2 5 2 1 6 8 7 2 5 5
split_gain=2579.11 701.604 345.338 107.543 98.2524 72.6284 71.313 26.4195 23.2466 22.6603 21.8092 21.7358 36.565 19.1627 17.2664 16.9133 18.5752 16.7731 16.0165 14.2008 13.122 12.5563 11.3351 11.0629 8.9452 9.91137 8.63811 8.38599 18.6166 7.08988
threshold=0.40589240939138371 0.83602150537634423 0.20508259681429872 0.661904761904762 5.5000000000000009 14.79233576642336 13.224080267558529 44.500000000000007 22.951327433628325 50.000000000000007 5348.5933566433569 19.500000000000004 15.37019230769231 1.0000000180025095e-35 10.500000000000002 15.500000000000002 0.64026143790849688 0.28197530864197534 10.500000000000002 14.9562343358396 23.636287625418067 15.455357142857144 11.795683453237412 10.500000000000002 58890.41226288661 0.6245567375886526 41.500000000000007 20.319185059422754 35.973684210526322 22.104300543746913
decision_type=2 2 2 2 2 2 2 2 2 2 2 2 2 2 2 2 2 2 2 2 2 2 2 2 2 2 2 2 2 2
left_child=2 3 4 15 13 21 18 14 -7 -9 26 12 -12 -1 -5 16 23 -4 -6 -17 -14 -3 -15 -2 25 -21 -8 -10 -29 -25
right_child=1 5 17 7 6 8 10 9 27 -11 11 -13 20 22 -16 19 -18 -19 -20 24 -22 -23 -24 29 -26 -27 -28 28 -30 -31
leaf_value=0.016586897218305814 0.011906580039426502 0.022604645797041027 -0.016312589446525274 0.033055229724189387 -0.024119761911760861 0.016799106468621455 -0.036882032583449284 -0.040999998913870919 0.04002627494767131 0.0016591276293436048 -0.028998867536427154 -0.03754455710593306 -0.021038474827176995 -0.020215584919787945 0.0096650797411899827 -0.043885288419930835 0.01273546994411609 -0.0099221991501896919 -0.043528086442573291 -0.0051310208091284179 -0.0054222031629511287 0.042093403389941199 0.00091006336142382925 -0.0026549171883422178 -0.010770596434863715 0.002123981017760746 -0.01134138476929776 0.011328093094643513 0.033599569869879338 0.0063408974990784104
leaf_weight=95 162 89 1532 81 119 623 38 45 168 101 6454 610 675 128 3043 23 289 3114 996 1788 168 1158 126 1934 468 639 257 134 313 247
leaf_count=95 162 89 1532 81 119 623 38 45 168 101 6454 610 675 128 3043 23 289 3114 996 1788 168 1158 126 1934 468 639 257 134 313 247
internal_value=-0.00913196 0.00871877 -0.0232322 0.00210713 -0.0286168 0.0321855 -0.0295925 0.00929996 0.0236065 -0.0114892 -0.0279796 -0.0284776 -0.0277197 -0.00257069 0.0102715 -0.00213082 0.000775459 -0.0120294 -0.0414567 -0.00475224 -0.0179263 0.0407025 -0.00973593 -0.000699762 -0.00444134 -0.00322087 -0.0146314 0.0305025 0.0269231 -0.00163613
internal_weight=25617 11305 14312 8820 9666 2485 9317 3270 1238 146 8202 7907 7297 349 3124 5550 2632 4646 1115 2918 843 1247 254 2343 2895 2427 295 615 447 2181
internal_count=25617 11305 14312 8820 9666 2485 9317 3270 1238 146 8202 7907 7297 349 3124 5550 2632 4646 1115 2918 843 1247 254 2343 2895 2427 295 615 447 2181
is_linear=0
shrinkage=0.05


Tree=27
num_leaves=31
num_cat=0
split_feature=8 8 8 3 8 3 8 3 3 8 3 4 8 6 4 3 3 8 4 7 2 3 4 4 3 8 6 3 8 4
split_gain=2537.59 693.741 352.609 141.2 102.891 57.7754 30.4632 17.7238 17.3043 15.4205 12.0593 10.3685 9.68642 8.0287 7.86721 4.92575 4.44633 3.84706 4.67624 3.83868 4.44598 3.80168 9.82115 3.70789 3.34999 3.33589 3.16538 3.00913 2.9817 2.9182
threshold=0.40589240939138371 0.83602150537634423 0.20508259681429872 5.2129629629629637 0.661904761904762 -0.67295597484276715 1.0000000180025095e-35 2.1798352654057358 -0.46217877571928617 0.62279120086548878 3.8111285266457688 6.540570892639554 0.96481178396072032 37515.129497872353 4.2413049888155019 0.99065420560747663 -0.29678571428571415 0.097619047619047619 8.8650868836114807 31.500000000000004 18.628301602829413 1.9941176470588238 1.4020586807506328 1.0000000180025095e-35 2.8782679738562096 0.72082592973596438 50138.834974747479 8.4801587301587329 0.94590643274853814 9.9923009667446561
decision_type=2 2 2 2 2 2 2 2 2 2 2 2 2 2 2 2 2 2 2 2 2 2 2 2 2 2 2 2 2 2
left_child=2 4 5 10 9 6 -1 15 13 -2 21 16 -5 -4 -12 -6 -7 -8 -19 -11 -21 23 24 -3 -23 -17 28 -14 -24 -9
right_child=1 3 8 12 7 11 17 29 -10 19 14 -13 27 -15 -16 25 -18 18 -20 20 -22 22 26 -25 -26 -27 -28 -29 -30 -31
leaf_value=-0.04231513703975856 -0.0038875341863187605 -0.013268150389194489 -0.019001352561435213 0.0292065831949774 0.0036304452036066111 -0.021139198482820865 -0.034344036887207677 0.016721419421249651 -0.0096792127571490999 0.012110166556256659 0.034629031000587777 -0.0308872577936753 0.039519167739109927 -0.011093819171923106 0.015671927053877651 0.0036657547417411705 -0.010908350211955197 -0.028939381845828251 -0.022386409080065523 -0.0024877586070353162 0.0029647207861637488 0.022583650630347583 0.014597662915742347 0.0096244693207219734 0.042672349305616489 0.0098834016389355676 0.023150001808268126 0.044315614015134591 0.0057178027651928094 0.011639575983131334
leaf_weight=447 3744 20 938 151 899 133 315 567 3220 85 131 92 520 488 94 278 527 7870 282 549 1172 49 227 153 36 963 61 881 162 563
leaf_count=447 3744 20 938 151 899 133 315 567 3220 85 131 92 520 488 94 278 527 7870 282 549 1172 49 227 153 36 963 61 881 162 563
internal_value=-0.00904373 0.0086627 -0.02303 0.0319975 0.00208821 -0.028471 -0.0295938 0.00912376 -0.0117099 -0.00205706 0.0166256 -0.015162 0.0412385 -0.0162953 0.0267092 0.00644886 -0.01297 -0.0289222 -0.0287127 0.00173767 0.00122538 0.013421 0.0155045 0.00697792 0.0310918 0.00849057 0.0125602 0.0425353 0.0108996 0.0141895
internal_weight=25617 11305 14312 2485 8820 9666 8914 3270 4646 5550 933 752 1552 1426 225 2140 660 8467 8152 1806 1721 708 535 173 85 1241 450 1401 389 1130
internal_count=25617 11305 14312 2485 8820 9666 8914 3270 4646 5550 933 752 1552 1426 225 2140 660 8467 8152 1806 1721 708 535 173 85 1241 450 1401 389 1130
is_linear=0
shrinkage=0.05


Tree=28
num_leaves=31
num_cat=0
split_feature=8 8 8 1 8 5 1 0 1 5 1 0 5 1 1 5 7 1 1 1 8 1 8 5 7 5 7 1 0 5
split_gain=2499.5 687.301 358.564 99.7518 99.2474 72.6691 71.8051 38.6008 28.2679 28.9958 25.873 22.5168 19.0486 21.4636 18.9536 18.528 17.349 17.2249 17.1716 17.0294 16.2816 16.0903 17.4505 14.274 13.0144 10.9684 10.8153 10.6576 10.0649 9.68111
threshold=0.40589240939138371 0.83602150537634423 0.20508259681429872 5.5000000000000009 0.661904761904762 13.224080267558529 12.500000000000002 13499.605000000001 20.500000000000004 16.830357142857146 44.500000000000007 59251.080000000009 15.37019230769231 18.500000000000004 1.0000000180025095e-35 36.94444444444445 219.00000000000003 10.500000000000002 10.500000000000002 15.500000000000002 0.28197530864197534 15.500000000000002 0.64026143790849688 14.9562343358396 653.00000000000011 7.1357808857808864 10.500000000000002 10.500000000000002 35471.937500000007 13.329910015649455
decision_type=2 2 2 2 2 2 2 2 2 2 2 2 2 2 2 2 2 2 2 2 2 2 2 2 2 2 2 2 2 2
left_child=2 4 3 14 21 18 29 8 9 19 17 -12 -9 24 -1 16 26 -6 -5 -7 -4 22 27 -23 -14 -16 -8 -2 -19 -3
right_child=1 6 20 5 10 7 15 12 -10 -11 11 -13 13 -15 25 -17 -18 28 -20 -21 -22 23 -24 -25 -26 -27 -28 -29 -30 -31
leaf_value=0.016980488196407496 0.011787347311016036 0.017818893827497958 -0.015634298978091338 -0.023324762711677105 0.032708016589835839 -0.02964338932521118 0.027692506304086123 -0.032294840963968882 -0.039686957728045785 -0.010518288281383079 0.0015239142493222665 -0.040999998913870919 -0.021070283667641625 -0.034845429497682268 -0.019507070968393238 0.035779890646055391 0.036930052570404451 0.011088118554420958 -0.043420748452466157 -0.021565875056840628 -0.0093382290237288331 -0.043781434453052021 0.012436195379799833 -0.0042359111491560185 0.0044368045980280098 0.0012740186962579925 0.01606572451707378 -0.0015049933341754341 0.0045995081245393072 0.04290808544798394
leaf_weight=95 162 40 1532 119 81 996 278 3698 259 436 101 45 551 315 128 299 163 2226 996 1892 3114 23 289 2895 55 126 713 2181 817 992
leaf_count=95 162 40 1532 119 81 996 278 3698 259 436 101 45 551 315 128 299 163 2226 996 1892 3114 23 289 2895 55 126 713 2181 817 992
internal_value=-0.00894872 0.00862435 -0.0228296 -0.0283164 0.00208044 -0.0292995 0.0318506 -0.0276714 -0.0237768 -0.0225371 0.00899028 -0.0115828 -0.0306924 -0.0242584 -0.0020723 0.0246877 0.0218137 0.00995176 -0.041276 -0.0243516 -0.0114143 -0.00199076 0.000843929 -0.00454761 -0.0187553 -0.00919834 0.0193273 -0.000585933 0.00934602 0.0419356
internal_weight=25617 11305 14312 9666 8820 9317 2485 8202 3583 3324 3270 146 4619 921 349 1453 1154 3124 1115 2888 4646 5550 2632 2918 606 254 991 2343 3043 1032
internal_count=25617 11305 14312 9666 8820 9317 2485 8202 3583 3324 3270 146 4619 921 349 1453 1154 3124 1115 2888 4646 5550 2632 2918 606 254 991 2343 3043 1032
is_linear=0
shrinkage=0.05


Tree=29
num_leaves=31
num_cat=0
split_feature=8 8 8 3 8 3 8 0 0 7 3 0 8 3 3 4 0 8 4 0 6 0 0 5 0 0 0 6 0 4
split_gain=2459.18 678.412 366.108 149.324 95.3 65.1273 29.412 19.7057 18.5555 25.3238 17.7202 15.3137 14.3006 13.7176 12.632 11.6428 11.2592 9.79498 8.76033 24.1996 18.5555 10.0697 11.4741 12.4807 10.7879 11.1932 8.72198 8.3465 8.03346 8.02279
threshold=0.40589240939138371 0.83602150537634423 0.20508259681429872 5.2129629629629637 0.661904761904762 -0.67295597484276715 1.0000000180025095e-35 32149.775000000005 44140.056250000001 988.00000000000011 -0.46217877571928617 53612.770000000011 0.62279120086548878 3.274436090225564 3.8111285266457688 6.540570892639554 69799.575000000012 0.98549107142857151 6.0502385377947574 3952.0750000000003 6408.7918784530393 13305.301250000002 17507.210000000003 15.405357142857145 6579.3250000000007 1193.3700000000001 61648.325000000004 37515.129497872353 1623.0050000000003 4.2413049888155019
decision_type=2 2 2 2 2 2 2 2 2 2 2 2 2 2 2 2 2 2 2 2 2 2 2 2 2 2 2 2 2 2
left_child=2 4 5 14 12 6 -1 18 13 -10 27 -9 -2 -6 -3 -7 -13 -5 19 -8 -21 24 23 -23 25 -20 -11 -4 -12 -16
right_child=1 3 10 17 8 15 7 11 9 26 28 16 -14 -15 29 -17 -18 -19 21 20 -22 22 -24 -25 -26 -27 -28 -29 -30 -31
leaf_value=-0.041882412168780719 -0.0037006209061769173 0.012540853787003096 -0.018510749978003407 0.034796941822148077 0.0083048315258994181 -0.011737192280477649 -0.036677647571393857 -0.036208474096143972 0.0067875171818898294 0.0062378206673790425 -0.00068237650643736703 -0.024584746883989411 0.0017164727956688825 0.016163567019392217 0.034138622254360727 -0.030723565881666932 -0.035402053790943078 0.04362241555292902 -0.021446578812495676 -0.017515846408819886 -0.033004038664648495 -0.035466756340829513 -0.025191880718382353 -0.013502284149888535 -0.019260733723676402 -0.029032003667994563 -0.022373325974354902 -0.010448231326690953 -0.0098013443714225074 0.014994985816326549
leaf_weight=447 3744 708 938 438 1800 660 779 1308 510 34 263 725 1806 803 131 92 360 1114 781 445 342 726 864 71 777 1289 123 488 2957 94
leaf_count=447 3744 708 938 438 1800 660 779 1308 510 34 263 725 1806 803 131 92 360 1114 781 445 342 726 864 71 777 1289 123 488 2957 94
internal_value=-0.00887773 0.008553 -0.0226462 0.0316286 0.00205155 -0.0281904 -0.0293825 -0.0287226 0.00882258 0.00138201 -0.0111115 -0.0325656 -0.00193787 0.0107292 0.0158206 -0.01406 -0.0281739 0.0411317 -0.0272086 -0.0304303 -0.0242464 -0.0260894 -0.0291832 -0.0335101 -0.0242844 -0.0261701 -0.0161773 -0.0157516 -0.00905653 0.0261408
internal_weight=25617 11305 14312 2485 8820 9666 8914 8467 3270 667 4646 2393 5550 2603 933 752 1085 1552 6074 1566 787 4508 1661 797 2847 2070 157 1426 3220 225
internal_count=25617 11305 14312 2485 8820 9666 8914 8467 3270 667 4646 2393 5550 2603 933 752 1085 1552 6074 1566 787 4508 1661 797 2847 2070 157 1426 3220 225
is_linear=0
shrinkage=0.05


Tree=30
num_leaves=31
num_cat=0
split_feature=8 8 3 8 3 1 2 8 0 1 3 1 1 3 1 1 3 1 0 2 2 1 2 1 8 3 1 2 8 2
split_gain=2431.45 803.932 184.213 153.974 150.86 124.982 54.5744 32.7257 43.0652 32.9545 31.3764 19.1669 18.914 18.1897 16.906 16.026 15.5074 14.7627 24.2753 14.1364 13.782 13.0863 11.9066 17.8316 10.3975 9.59818 9.74207 9.57477 8.92905 8.87857
threshold=0.34113989764635777 0.83602150537634423 -1.3914893617021276 0.6245567375886526 5.2129629629629637 5.5000000000000009 15.692857142857145 0.1958562271062271 13499.605000000001 19.500000000000004 2.3693181818181825 14.500000000000002 10.500000000000002 -0.29678571428571415 11.500000000000002 1.0000000180025095e-35 3.8111285266457688 35.500000000000007 68462.005000000019 18.541196741854641 18.648717948717955 10.500000000000002 20.078925619834717 15.500000000000002 0.98549107142857151 1.4069466560509556 33.500000000000007 15.982352941176471 0.041897810218978107 14.971153846153848
decision_type=2 2 2 2 2 2 2 2 2 2 2 2 2 2 2 2 2 2 2 2 2 2 2 2 2 2 2 2 2 2
left_child=2 3 5 14 16 15 12 8 9 22 11 19 -7 -4 -2 -1 -3 20 -19 -5 -13 -12 23 -8 -6 26 29 -25 -10 -16
right_child=1 4 13 10 24 6 7 -9 28 -11 21 17 -14 -15 25 -17 -18 18 -20 -21 -22 -23 -24 27 -26 -27 -28 -29 -30 -31
leaf_value=0.018311609939525002 0.0063877269673342386 0.011760720462527473 -0.019427369641721252 0.0047544474327924913 0.034667867336801328 -0.023138559436798097 -0.029489660587325661 -0.016825263804391675 -0.042177088653839574 -0.041029482459896932 0.035894381042037696 -0.00041472459957394908 -0.044070197565457492 -0.011457697406906485 -0.015658185001068969 -0.0057350241924723384 0.026709117385526671 -0.0019010141338001889 -0.044999998807907109 0.025257030335764364 0.0065411980228120229 0.012467376055996127 -0.0062855431847274315 -0.020344545948228442 0.04366609244691444 -0.0022841556608718967 -0.016016591525914375 -0.04017562589770745 -0.032018229933085444 -0.0058567828504659672
leaf_weight=95 293 688 1127 157 452 125 932 575 229 286 63 1071 790 1963 246 256 232 233 38 181 2125 1108 100 1797 1108 1373 285 63 3900 3802
leaf_count=95 293 688 1127 157 452 125 932 575 229 286 63 1071 790 1963 246 256 232 233 38 181 2125 1108 100 1797 1108 1373 285 63 3900 3802
internal_value=-0.00879138 0.00587791 -0.0249194 6.81036e-05 0.0315886 -0.0284847 -0.0296521 -0.0283103 -0.0292141 -0.0248388 0.00657076 0.00436818 -0.0412107 -0.0143644 -0.00532567 0.000773324 0.0155303 0.00326015 -0.00794441 0.0157336 0.00421022 0.0137278 -0.0232376 -0.0238448 0.0410589 -0.00592714 -0.0070815 -0.0210162 -0.0325817 -0.00645242
internal_weight=25693 13455 12238 10975 2480 9148 8797 7882 7307 3178 4976 3805 915 3090 5999 351 920 3467 271 338 3196 1171 2892 2792 1560 5706 4333 1860 4129 4048
internal_count=25693 13455 12238 10975 2480 9148 8797 7882 7307 3178 4976 3805 915 3090 5999 351 920 3467 271 338 3196 1171 2892 2792 1560 5706 4333 1860 4129 4048
is_linear=0
shrinkage=0.05


Tree=31
num_leaves=31
num_cat=0
split_feature=8 8 8 8 1 1 5 0 1 5 1 5 5 1 1 2 1 8 1 5 1 0 5 1 8 4 7 5 5 5
split_gain=2404.39 792.219 177.534 147.385 116.437 85.9911 75.8872 43.174 31.9317 27.6211 26.1678 24.7686 22.4829 21.3543 18.4589 18.1694 17.1858 16.8941 16.2282 15.6521 16.1201 17.9882 15.4949 15.4844 12.1667 11.1049 9.86429 9.75662 9.11809 9.03621
threshold=0.34113989764635777 0.83602150537634423 0.20508259681429872 0.6245567375886526 5.5000000000000009 12.500000000000002 13.224080267558529 13499.605000000001 20.500000000000004 14.325757575757578 12.500000000000002 16.830357142857146 35.973684210526322 18.500000000000004 15.500000000000002 22.946135118685337 9.5000000000000018 0.97393048128342252 11.500000000000002 22.032871972318343 32.500000000000007 68462.005000000019 17.976470588235298 1.0000000180025095e-35 0.63818181818181829 2.1547219351057638 124.00000000000001 15.455357142857144 17.353834940569637 15.329037800687287
decision_type=2 2 2 2 2 2 2 2 2 2 2 2 2 2 2 2 2 2 2 2 2 2 2 2 2 2 2 2 2 2
left_child=2 3 4 18 23 29 16 8 11 -9 -5 14 17 15 -8 -11 -6 -7 -2 20 24 26 -19 -1 -12 -4 -22 -20 -26 -3
right_child=1 5 25 10 6 12 7 9 -10 13 19 -13 -14 -15 -16 -17 -18 22 27 -21 21 -23 -24 -25 28 -27 -28 -29 -30 -31
leaf_value=0.017816758211902393 0.0063059727953740556 0.025380464094794459 -0.0077440668867646365 0.019753236887247668 -0.02204814634990887 0.010819200058155436 -0.029099185429688441 -0.032612481513963919 -0.040250078471200101 -0.021852738429217103 -0.0030088290799913449 -0.010396148075868333 0.034479662498983744 -0.033887812175997942 -0.020585428866007227 0.001300655309346111 -0.043111374877101066 0.0057718624370266701 -0.01514661399026712 0.0097438998331447063 -0.027267972358635498 -0.042392236164637977 0.026997247028993362 -0.0059558546482227177 -0.0074683676896517576 -0.015128273309008884 0.00217406267643367 -0.0053041387250386315 0.0065496617511987213 0.043748572212156833
leaf_weight=93 293 72 695 345 107 343 958 3521 252 670 458 417 356 346 1898 97 1020 99 264 1469 35 35 654 260 122 1904 152 5442 2360 956
leaf_count=93 293 72 695 345 107 343 958 3521 252 670 458 417 356 346 1898 97 1020 99 264 1469 35 35 654 260 122 1904 152 5442 2360 956
internal_value=-0.00871322 0.00587419 -0.0247513 0.000106865 -0.0278784 0.0313969 -0.0289498 -0.0272699 -0.0230997 -0.0304421 0.00646886 -0.0217792 0.0235629 -0.0235762 -0.0234412 -0.0189246 -0.0411116 0.020017 -0.00517022 0.0054792 0.0034979 -0.00949392 0.0242067 0.000307185 0.00447892 -0.0131537 -0.00333648 -0.00575952 0.00586062 0.0424621
internal_weight=25693 13455 12238 10975 9639 2480 9286 8159 3525 4634 4976 3273 1452 1113 2856 767 1127 1096 5999 4631 3162 222 753 353 2940 2599 187 5706 2482 1028
internal_count=25693 13455 12238 10975 9639 2480 9286 8159 3525 4634 4976 3273 1452 1113 2856 767 1127 1096 5999 4631 3162 222 753 353 2940 2599 187 5706 2482 1028
is_linear=0
shrinkage=0.05


Tree=32
num_leaves=31
num_cat=0
split_feature=3 3 4 1 3 1 3 1 4 3 0 2 1 2 3 4 1 0 3 1 1 3 1 4 4 2 4 3 1 0
split_gain=2263.67 816.998 131.952 135.086 120.227 87.9808 69.5184 48.3032 43.8837 42.746 42.5083 37.7089 31.4569 25.308 24.5611 24.5055 20.944 20.4594 20.0949 19.4005 17.42 16.6266 15.1866 15.1852 14.0901 13.6182 13.5889 13.3272 13.0611 12.6355
threshold=-0.375057478814951 4.4553571428571432 6.058910700988247 5.5000000000000009 1.9197315436241611 13.500000000000002 -2.6794871794871793 19.500000000000004 5.3765542502342827 0.78019323671497598 13499.605000000001 22.393888206388208 12.500000000000002 19.295982142857145 -3.6794871794871793 7.7147791328294035 10.500000000000002 35471.937500000007 7.8188153310104536 15.500000000000002 41.500000000000007 -0.92857142857142849 1.0000000180025095e-35 28.01119916649375 0.99431500012372631 14.971153846153848 17.025508886405657 -4.886217948717948 10.500000000000002 67383.565000000017
decision_type=2 2 2 2 2 2 2 2 2 2 2 2 2 2 2 2 2 2 2 2 2 2 2 2 2 2 2 2 2 2
left_child=2 4 3 22 9 23 16 11 -7 26 19 27 -6 -11 -9 24 -5 -15 25 -8 -19 -12 -1 -3 -14 -10 28 -4 -2 -16
right_child=1 5 7 6 12 8 10 14 18 13 21 -13 15 17 29 -17 -18 20 -20 -21 -22 -23 -24 -25 -26 -27 -28 -29 -30 -31
leaf_value=0.017681650489031042 0.01594434595552453 0.043236034325757781 -0.044687362435536511 -0.021193625845835021 0.021278346094425929 0.039110236907975514 -0.029621291599256458 -0.034915439502384661 0.030844355743555797 -0.0035151720365640946 -0.032484461097000657 0.0012711822114472586 0.034428915268969983 0.0069660443848043223 -0.019666574769113022 -0.0030329779226403258 -0.043651954644650305 -0.0010187286084133078 0.028989979520500187 -0.020824329018167394 -0.028830822221324093 -0.016619602143407849 -0.0053727130477773753 0.0082256874535232786 0.0082392833817070844 0.011553769287785565 -0.032196096510722721 -0.015121137521226772 -0.0082009895662856665 0.016703286165228256
leaf_weight=97 57 964 39 115 401 321 930 441 105 4021 3638 399 53 1347 293 556 1067 731 310 1922 61 173 271 32 1656 711 58 1678 3220 26
leaf_count=97 57 964 39 115 401 321 930 441 105 4021 3638 399 53 1347 293 556 1067 731 310 1922 61 173 271 32 1656 711 58 1678 3220 26
